{"learner":{"attributes":{},"feature_names":[],"feature_types":[],"gradient_booster":{"model":{"gbtree_model_param":{"num_parallel_tree":"1","num_trees":"100"},"iteration_indptr":[0,1,2,3,4,5,6,7,8,9,10,11,12,13,14,15,16,17,18,19,20,21,22,23,24,25,26,27,28,29,30,31,32,33,34,35,36,37,38,39,40,41,42,43,44,45,46,47,48,49,50,51,52,53,54,55,56,57,58,59,60,61,62,63,64,65,66,67,68,69,70,71,72,73,74,75,76,77,78,79,80,81,82,83,84,85,86,87,88,89,90,91,92,93,94,95,96,97,98,99,100],"tree_info":[0,0,0,0,0,0,0,0,0,0,0,0,0,0,0,0,0,0,0,0,0,0,0,0,0,0,0,0,0,0,0,0,0,0,0,0,0,0,0,0,0,0,0,0,0,0,0,0,0,0,0,0,0,0,0,0,0,0,0,0,0,0,0,0,0,0,0,0,0,0,0,0,0,0,0,0,0,0,0,0,0,0,0,0,0,0,0,0,0,0,0,0,0,0,0,0,0,0,0,0],"trees":[{"base_weights":[-1.0811214E-2,-1.2102448E0,3.9881018E-1,-1.4309053E0,1.2381709E-1,6.57796E-1,-1.0393989E0,1.3818038E0,-1.4553893E0,7.186617E-1,-1.5091887E0,-2.9789403E-1,9.079996E-1,-6.92279E-1,-1.3459135E0,1.5342194E0,-1.4153072E0,-1.4743388E0,8.158254E-1,-7.3319024E-1,1.1437302E0,-1.5327718E0,1.0069851E0,5.63884E-1,-5.349411E-1,1.1038824E0,2.1146117E-1,-3.3136362E-1,-1.3391081E0,-1.4284106E0,-6.1446536E-1,-9.6374415E-2,1.5599533E0,-1.5156907E-1,5.163016E-3,-1.533978E0,-1.0182372E0,-1.5362084E0,1.5372461E0,-9.4939053E-1,1.5788708E0,-9.7681737E-1,1.3231223E0,-1.5433096E0,-3.8480562E-1,-4.4750535E-1,1.5782489E0,1.048342E0,-1.0958873E0,-6.7587054E-1,1.1155174E0,-9.3989396E-1,1.1631123E0,4.2159355E-1,-1.4834105E0,-1.2565182E0,-7.928767E-2,-1.3875089E0,1.8822181E-1,-3.4308228E-1,-1.4579812E0,-1.0806473E0,1.2379239E0,3.126304E-2,1.5923323E-1,-1.7795857E-2,-1.5446953E-1,1.378117E-1,-1.1761739E-1,-1.5733482E-1,5.1139634E-2,1.6135746E-1,1.0202936E-1,9.474056E-2,-1.0819252E-1,1.6943438E-1,-8.845117E-2,-1.177516E-1,1.7596418E-1,1.3622193E-1,-9.400408E-2,7.624992E-2,-1.5477002E-1,8.120424E-2,-1.3501124E-1,5.143231E-2,-1.1584101E-1,2.2680627E-3,2.0660868E-1,-1.4762329E-1,1.1746351E-1,2.7686534E-2,-1.3564515E-1,-7.285839E-2,1.2153413E-1,1.2926959E-1,-2.1869717E-2,-1.3595897E-1,-2.6739303E-2,1.21884346E-1,3.7856435E-3,-1.7340673E-2,8.18515E-2,-1.5882677E-1,-1.4085459E-2,-1.355672E-1,1.8133547E-2,-4.507214E-2,7.46827E-2,-1.4041819E-1,1.4954238E-1,-1.24462E-1,1.1765788E-1,7.715716E-2,-1.4418827E-1,1.2396931E-2,-1.4720017E-1,-1.4500956E-1,2.9173288E-2,-1.2409326E-1,1.4066915E-1],"categories":[],"categories_nodes":[],"categories_segments":[],"categories_sizes":[],"default_left":[0,0,0,0,0,0,0,0,0,0,0,0,0,0,0,0,0,0,0,0,0,0,0,0,0,0,0,0,0,0,0,0,0,0,0,0,0,0,0,0,0,0,0,0,0,0,0,0,0,0,0,0,0,0,0,0,0,0,0,0,0,0,0,0,0,0,0,0,0,0,0,0,0,0,0,0,0,0,0,0,0,0,0,0,0,0,0,0,0,0,0,0,0,0,0,0,0,0,0,0,0,0,0,0,0,0,0,0,0,0,0,0,0,0,0,0,0,0,0,0,0],"id":0,"left_children":[1,3,5,7,9,11,13,15,17,19,21,23,25,27,29,31,33,35,37,39,41,43,45,47,49,51,53,55,57,59,61,-1,63,-1,-1,65,67,69,71,73,75,77,79,81,83,85,87,89,91,93,95,97,99,101,103,105,107,109,111,113,115,117,119,-1,-1,-1,-1,-1,-1,-1,-1,-1,-1,-1,-1,-1,-1,-1,-1,-1,-1,-1,-1,-1,-1,-1,-1,-1,-1,-1,-1,-1,-1,-1,-1,-1,-1,-1,-1,-1,-1,-1,-1,-1,-1,-1,-1,-1,-1,-1,-1,-1,-1,-1,-1,-1,-1,-1,-1,-1,-1],"loss_changes":[9.236941E4,1.4089219E4,5.2200945E4,2.830211E3,6.600461E3,2.839761E4,2.2744648E3,1.5348029E2,1.7534922E3,3.0744827E3,1.0920215E2,5.034089E3,1.2841344E4,2.3412344E3,6.843828E2,2.3170166E1,2.8555565E0,1.0967656E3,5.750764E2,5.656242E2,1.4669893E3,2.1154297E1,1.5205658E1,4.27594E3,4.495962E3,8.893594E3,7.3586104E3,1.5016821E3,2.6580273E2,3.269961E2,9.9679846E2,0E0,1.2991455E1,0E0,0E0,5.1865625E2,1.7699067E3,6.867569E0,8.56543E0,2.6062817E2,2.9056992E1,1.6743701E2,3.156455E2,1.9211914E1,2.1528584E1,4.493328E0,9.628813E0,1.3139629E3,4.3018823E2,1.7760342E3,3.597832E2,5.8374475E2,4.477039E3,4.3413447E3,3.2062354E2,1.96823E2,1.5535353E3,1.6946338E2,1.5896501E2,3.3420337E2,2.2050195E2,4.676499E2,9.890497E1,0E0,0E0,0E0,0E0,0E0,0E0,0E0,0E0,0E0,0E0,0E0,0E0,0E0,0E0,0E0,0E0,0E0,0E0,0E0,0E0,0E0,0E0,0E0,0E0,0E0,0E0,0E0,0E0,0E0,0E0,0E0,0E0,0E0,0E0,0E0,0E0,0E0,0E0,0E0,0E0,0E0,0E0,0E0,0E0,0E0,0E0,0E0,0E0,0E0,0E0,0E0,0E0,0E0,0E0,0E0,0E0,0E0,0E0],"parents":[2147483647,0,0,1,1,2,2,3,3,4,4,5,5,6,6,7,7,8,8,9,9,10,10,11,11,12,12,13,13,14,14,15,15,16,16,17,17,18,18,19,19,20,20,21,21,22,22,23,23,24,24,25,25,26,26,27,27,28,28,29,29,30,30,32,32,35,35,36,36,37,37,38,38,39,39,40,40,41,41,42,42,43,43,44,44,45,45,46,46,47,47,48,48,49,49,50,50,51,51,52,52,53,53,54,54,55,55,56,56,57,57,58,58,59,59,60,60,61,61,62,62],"right_children":[2,4,6,8,10,12,14,16,18,20,22,24,26,28,30,32,34,36,38,40,42,44,46,48,50,52,54,56,58,60,62,-1,64,-1,-1,66,68,70,72,74,76,78,80,82,84,86,88,90,92,94,96,98,100,102,104,106,108,110,112,114,116,118,120,-1,-1,-1,-1,-1,-1,-1,-1,-1,-1,-1,-1,-1,-1,-1,-1,-1,-1,-1,-1,-1,-1,-1,-1,-1,-1,-1,-1,-1,-1,-1,-1,-1,-1,-1,-1,-1,-1,-1,-1,-1,-1,-1,-1,-1,-1,-1,-1,-1,-1,-1,-1,-1,-1,-1,-1,-1,-1],"split_conditions":[0E0,6.008061E0,5.992E3,-1.1387677E1,3.048E3,2.4856263E-4,1E1,6.4E1,1.9321987E-2,2.5371476E-3,6E0,7.04E2,3.6713441E-3,3.7504E6,1E0,-1.86819E6,1.1911792E-2,1E0,6.481126E-1,6.8448424E-2,1E0,7.176684E-2,3.996525E-3,0E0,4.064235E-3,-1E0,2.88E2,1.2069873E-3,3.9492594E-3,0E0,2.56E2,-9.6374415E-2,1.9843364E-3,-1.5156907E-1,5.163016E-3,0E0,-5.1248E4,1E0,1.7034775E-3,-5.794E4,3.593013E-4,1E0,7.6E1,0E0,0E0,3.030255E-4,3.4390006E-4,-4.096E4,2.380371E-3,5.3983457E-2,1.0894495E-2,1E0,4.52512E5,3.6764707E-4,0E0,1E0,4E0,1E1,2E0,4.5257408E-4,0E0,3E0,1E0,3.126304E-2,1.5923323E-1,-1.7795857E-2,-1.5446953E-1,1.378117E-1,-1.1761739E-1,-1.5733482E-1,5.1139634E-2,1.6135746E-1,1.0202936E-1,9.474056E-2,-1.0819252E-1,1.6943438E-1,-8.845117E-2,-1.177516E-1,1.7596418E-1,1.3622193E-1,-9.400408E-2,7.624992E-2,-1.5477002E-1,8.120424E-2,-1.3501124E-1,5.143231E-2,-1.1584101E-1,2.2680627E-3,2.0660868E-1,-1.4762329E-1,1.1746351E-1,2.7686534E-2,-1.3564515E-1,-7.285839E-2,1.2153413E-1,1.2926959E-1,-2.1869717E-2,-1.3595897E-1,-2.6739303E-2,1.21884346E-1,3.7856435E-3,-1.7340673E-2,8.18515E-2,-1.5882677E-1,-1.4085459E-2,-1.355672E-1,1.8133547E-2,-4.507214E-2,7.46827E-2,-1.4041819E-1,1.4954238E-1,-1.24462E-1,1.1765788E-1,7.715716E-2,-1.4418827E-1,1.2396931E-2,-1.4720017E-1,-1.4500956E-1,2.9173288E-2,-1.2409326E-1,1.4066915E-1],"split_indices":[637,611,2359,784,2359,503,679,2359,376,497,689,2355,125,2360,930,834,8,1941,0,584,1060,497,208,655,55,658,2377,126,148,1490,2375,0,114,0,0,874,810,1510,65,810,414,927,2371,850,951,464,464,798,36,601,578,692,2364,493,2092,930,692,2295,1818,387,815,691,886,0,0,0,0,0,0,0,0,0,0,0,0,0,0,0,0,0,0,0,0,0,0,0,0,0,0,0,0,0,0,0,0,0,0,0,0,0,0,0,0,0,0,0,0,0,0,0,0,0,0,0,0,0,0,0,0,0,0],"split_type":[0,0,0,0,0,0,0,0,0,0,0,0,0,0,0,0,0,0,0,0,0,0,0,0,0,0,0,0,0,0,0,0,0,0,0,0,0,0,0,0,0,0,0,0,0,0,0,0,0,0,0,0,0,0,0,0,0,0,0,0,0,0,0,0,0,0,0,0,0,0,0,0,0,0,0,0,0,0,0,0,0,0,0,0,0,0,0,0,0,0,0,0,0,0,0,0,0,0,0,0,0,0,0,0,0,0,0,0,0,0,0,0,0,0,0,0,0,0,0,0,0],"sum_hessian":[1.8800297E5,4.7859914E4,1.4014305E5,4.1067133E4,6.792782E3,1.1875819E5,2.1384867E4,3.539156E2,4.071322E4,4.9794937E3,1.8132886E3,2.4640373E4,9.411781E4,1.0029724E4,1.1355145E4,3.360553E2,1.7860283E1,4.037669E4,3.365253E2,1.1275479E3,3.8519458E3,1.7968384E3,1.645026E1,5.315314E3,1.932506E4,7.345887E4,2.0658941E4,6.438632E3,3.5910918E3,1.0203391E4,1.1517532E3,3.0550482E0,3.3300024E2,1.6685263E1,1.1750185E0,3.5705523E4,4.671169E3,7.872624E1,2.5779907E2,1.0316663E3,9.5881516E1,3.0009973E2,3.5518462E3,1.7801531E3,1.6685263E1,4.700074E0,1.1750185E1,4.11468E3,1.2006339E3,1.7805291E4,1.519769E3,2.0685027E3,7.139037E4,1.8380814E4,2.278126E3,1.3778268E3,5.0608047E3,3.480875E3,1.1021674E2,2.709593E2,9.932432E3,9.205095E2,2.3124365E2,8.695137E0,3.243051E2,2.8012442E2,3.54254E4,2.8834955E2,4.3828193E3,7.755122E1,1.1750185E0,2.2278352E2,3.5015553E1,6.697606E1,9.6469025E2,9.188645E1,3.995063E0,2.8012442E2,1.9975315E1,3.4919202E3,5.9925945E1,3.0550482E0,1.777098E3,7.5201187E0,9.165145E0,2.1150334E0,2.5850408E0,3.0550482E0,8.695137E0,1.9552309E2,3.919157E3,1.9152803E2,1.00910596E3,1.7323062E4,4.822276E2,1.3416362E3,1.7813281E2,1.2730151E3,7.9548755E2,6.802135E4,3.3690132E3,7.3553813E3,1.1025434E4,2.1129185E3,1.6520761E2,1.2889954E3,8.8831406E1,3.4914502E3,1.5693547E3,3.4613696E3,1.9505308E1,4.4885708E1,6.533103E1,1.3465712E2,1.3630215E2,8.718638E1,9.845245E3,7.2522144E2,1.9528809E2,1.4335226E1,2.1690842E2],"tree_param":{"num_deleted":"0","num_feature":"2381","num_nodes":"121","size_leaf_vector":"1"}},{"base_weights":[-1.1588391E-2,-1.130475E0,3.5490292E-1,-1.3466692E0,9.3682736E-2,5.8270437E-1,-9.652177E-1,1.2016973E0,-1.3701148E0,6.2322676E-1,-1.4227904E0,-2.3004845E-1,8.117025E-1,-6.3664275E-1,-1.2607509E0,1.3329958E0,-1.333143E0,6.9148487E-1,-1.3889682E0,-6.656154E-1,1.0027205E0,-1.4451246E0,8.962812E-1,4.1497192E-1,-5.016988E-1,9.833447E-1,1.9185393E-1,-3.0184054E-1,-1.2536546E0,-1.3408197E0,-5.657554E-1,-9.094688E-2,1.3553982E0,-1.4355269E-1,9.99773E-3,-1.331178E0,1.3448218E0,-1.4470305E0,-9.484978E-1,-8.8442135E-1,1.4065288E0,-9.1175336E-1,1.1573998E0,-7.524762E-1,-1.4620013E0,-5.249409E-1,1.3757614E0,-1.8391277E-1,9.860169E-1,-9.109737E-1,-7.287816E-2,8.652664E-2,1.0916196E0,3.6910194E-1,-1.3891494E0,-1.1457268E0,-5.5230226E-2,-1.3005309E0,1.6731407E-1,-1.3604658E0,3.3617067E-1,-1.0047349E0,1.0836691E0,-9.745659E-2,1.3681887E-1,-1.3870509E-1,1.5481634E-1,1.4125317E-1,8.85011E-2,-1.663661E-2,-1.4573157E-1,1.2002619E-1,-1.0989578E-1,7.948155E-2,-1.0062124E-1,1.494602E-1,-1.19705856E-1,-1.1001884E-1,1.5356384E-1,1.2599964E-1,4.2989817E-2,-1.381948E-1,-8.177209E-4,-1.4866507E-1,-1.1298964E-1,7.0527084E-2,-1.1699923E-1,1.9924775E-1,1.1204569E-2,1.0653279E-1,-5.302282E-2,2.6886592E-2,1.20901905E-1,-9.4983004E-2,1.0287773E-1,-7.0500515E-2,2.2683298E-2,5.6407314E-2,-9.139585E-2,5.7513465E-4,1.14081495E-1,5.465589E-2,-8.536786E-2,-1.5359147E-2,-1.5018825E-1,1.2296642E-1,-1.2140443E-1,-4.278731E-2,8.007481E-2,-1.3167085E-1,1.3111274E-1,-1.2909865E-1,9.8106384E-2,3.392045E-2,-1.3781144E-1,-1.20478295E-1,1.223787E-1,-1.3619004E-1,2.6079802E-2,1.2348919E-1,-1.09846115E-1],"categories":[],"categories_nodes":[],"categories_segments":[],"categories_sizes":[],"default_left":[0,0,0,0,0,0,0,0,0,0,0,0,0,0,0,0,0,0,0,0,0,0,0,0,0,0,0,0,0,0,0,0,0,0,0,0,0,0,0,0,0,0,0,0,0,0,0,0,0,0,0,0,0,0,0,0,0,0,0,0,0,0,0,0,0,0,0,0,0,0,0,0,0,0,0,0,0,0,0,0,0,0,0,0,0,0,0,0,0,0,0,0,0,0,0,0,0,0,0,0,0,0,0,0,0,0,0,0,0,0,0,0,0,0,0,0,0,0,0,0,0],"id":1,"left_children":[1,3,5,7,9,11,13,15,17,19,21,23,25,27,29,31,33,35,37,39,41,43,45,47,49,51,53,55,57,59,61,-1,63,-1,-1,65,67,69,71,73,75,77,79,81,83,85,87,89,91,93,95,97,99,101,103,105,107,109,111,113,115,117,119,-1,-1,-1,-1,-1,-1,-1,-1,-1,-1,-1,-1,-1,-1,-1,-1,-1,-1,-1,-1,-1,-1,-1,-1,-1,-1,-1,-1,-1,-1,-1,-1,-1,-1,-1,-1,-1,-1,-1,-1,-1,-1,-1,-1,-1,-1,-1,-1,-1,-1,-1,-1,-1,-1,-1,-1,-1,-1],"loss_changes":[7.684326E4,1.2236816E4,4.2450324E4,2.3495234E3,5.5747124E3,2.2406078E4,2.0164531E3,1.2118378E2,1.5144375E3,2.5172144E3,9.435669E1,4.6372007E3,9.992379E3,2.0321548E3,6.077949E2,1.8393616E1,2.8093224E0,4.689812E2,9.854453E2,5.3215784E2,1.1782341E3,1.9707031E1,1.2821923E1,2.682396E3,3.2681758E3,7.142203E3,5.7085444E3,1.3275825E3,2.3072803E2,3.2351172E2,8.203478E2,0E0,1.1425049E1,0E0,0E0,1.6114288E1,7.084961E0,4.4878906E2,1.4551719E3,2.1753418E2,2.752272E1,1.3899312E2,2.7401807E2,2.0790274E1,1.2536377E1,4.9540076E0,1.0339252E1,1.657113E3,6.417715E2,7.191167E2,1.7232344E3,3.7868027E3,3.5059375E3,3.9749841E3,2.8581226E2,2.3560559E2,1.5753934E3,1.4327393E2,1.3346664E2,2.911953E2,1.5787057E2,4.0451935E2,7.999762E1,0E0,0E0,0E0,0E0,0E0,0E0,0E0,0E0,0E0,0E0,0E0,0E0,0E0,0E0,0E0,0E0,0E0,0E0,0E0,0E0,0E0,0E0,0E0,0E0,0E0,0E0,0E0,0E0,0E0,0E0,0E0,0E0,0E0,0E0,0E0,0E0,0E0,0E0,0E0,0E0,0E0,0E0,0E0,0E0,0E0,0E0,0E0,0E0,0E0,0E0,0E0,0E0,0E0,0E0,0E0,0E0,0E0,0E0],"parents":[2147483647,0,0,1,1,2,2,3,3,4,4,5,5,6,6,7,7,8,8,9,9,10,10,11,11,12,12,13,13,14,14,15,15,16,16,17,17,18,18,19,19,20,20,21,21,22,22,23,23,24,24,25,25,26,26,27,27,28,28,29,29,30,30,32,32,35,35,36,36,37,37,38,38,39,39,40,40,41,41,42,42,43,43,44,44,45,45,46,46,47,47,48,48,49,49,50,50,51,51,52,52,53,53,54,54,55,55,56,56,57,57,58,58,59,59,60,60,61,61,62,62],"right_children":[2,4,6,8,10,12,14,16,18,20,22,24,26,28,30,32,34,36,38,40,42,44,46,48,50,52,54,56,58,60,62,-1,64,-1,-1,66,68,70,72,74,76,78,80,82,84,86,88,90,92,94,96,98,100,102,104,106,108,110,112,114,116,118,120,-1,-1,-1,-1,-1,-1,-1,-1,-1,-1,-1,-1,-1,-1,-1,-1,-1,-1,-1,-1,-1,-1,-1,-1,-1,-1,-1,-1,-1,-1,-1,-1,-1,-1,-1,-1,-1,-1,-1,-1,-1,-1,-1,-1,-1,-1,-1,-1,-1,-1,-1,-1,-1,-1,-1,-1,-1,-1],"split_conditions":[0E0,6.0017433E0,5.992E3,-1.1387677E1,3.048E3,7.509978E-4,1E1,6.4E1,8.9548215E-5,2.5371476E-3,6E0,1.37369195E-2,3.6713441E-3,3.7504E6,1E0,-1.86819E6,4.1967975E-3,1E0,1E0,6.8448424E-2,1E0,0E0,3.6219263E-3,1.8971871E-3,5.8252425E-3,0E0,2.88E2,1.11309E-3,3.9492594E-3,1E0,2.56E2,-9.094688E-2,6E0,-1.4355269E-1,9.99773E-3,2.1707589E-2,2.3255814E-2,0E0,-5.1248E4,-5.794E4,1.5511957E-3,1E0,2.6E2,1.5015476E9,1E0,8.618789E-3,3.5216995E-3,4.091524E-3,5.5834306E-3,2E0,2.4584401E-3,4.2776E4,0E0,4.827643E6,1E0,8.192E3,4E0,1E1,1.8308258E-7,0E0,1.7695313E-3,3E0,2.82624E6,-9.745659E-2,1.3681887E-1,-1.3870509E-1,1.5481634E-1,1.4125317E-1,8.85011E-2,-1.663661E-2,-1.4573157E-1,1.2002619E-1,-1.0989578E-1,7.948155E-2,-1.0062124E-1,1.494602E-1,-1.19705856E-1,-1.1001884E-1,1.5356384E-1,1.2599964E-1,4.2989817E-2,-1.381948E-1,-8.177209E-4,-1.4866507E-1,-1.1298964E-1,7.0527084E-2,-1.1699923E-1,1.9924775E-1,1.1204569E-2,1.0653279E-1,-5.302282E-2,2.6886592E-2,1.20901905E-1,-9.4983004E-2,1.0287773E-1,-7.0500515E-2,2.2683298E-2,5.6407314E-2,-9.139585E-2,5.7513465E-4,1.14081495E-1,5.465589E-2,-8.536786E-2,-1.5359147E-2,-1.5018825E-1,1.2296642E-1,-1.2140443E-1,-4.278731E-2,8.007481E-2,-1.3167085E-1,1.3111274E-1,-1.2909865E-1,9.8106384E-2,3.392045E-2,-1.3781144E-1,-1.20478295E-1,1.223787E-1,-1.3619004E-1,2.6079802E-2,1.2348919E-1,-1.09846115E-1],"split_indices":[637,611,2359,784,2359,496,679,2359,128,497,689,255,125,2360,930,834,14,1614,1941,584,1060,940,138,589,533,665,2377,206,148,1059,2375,0,620,0,0,308,548,874,810,810,450,927,2353,626,1859,522,126,567,553,852,589,2364,1597,616,1348,2360,692,2295,293,815,182,691,2356,0,0,0,0,0,0,0,0,0,0,0,0,0,0,0,0,0,0,0,0,0,0,0,0,0,0,0,0,0,0,0,0,0,0,0,0,0,0,0,0,0,0,0,0,0,0,0,0,0,0,0,0,0,0,0,0,0,0],"split_type":[0,0,0,0,0,0,0,0,0,0,0,0,0,0,0,0,0,0,0,0,0,0,0,0,0,0,0,0,0,0,0,0,0,0,0,0,0,0,0,0,0,0,0,0,0,0,0,0,0,0,0,0,0,0,0,0,0,0,0,0,0,0,0,0,0,0,0,0,0,0,0,0,0,0,0,0,0,0,0,0,0,0,0,0,0,0,0,0,0,0,0,0,0,0,0,0,0,0,0,0,0,0,0,0,0,0,0,0,0,0,0,0,0,0,0,0,0,0,0,0,0],"sum_hessian":[1.8739214E5,4.6235258E4,1.4115689E5,3.9295344E4,6.939913E3,1.20383875E5,2.0773012E4,3.57772E2,3.893757E4,5.144182E3,1.795731E3,2.646283E4,9.392105E4,9.838112E3,1.0934899E4,3.406037E2,1.7168295E1,3.525361E2,3.8585035E4,1.1699674E3,3.9742148E3,1.778975E3,1.675591E1,7.8419585E3,1.8620871E4,7.355293E4,2.0368117E4,6.378505E3,3.4596077E3,9.804426E3,1.1304741E3,2.977329E0,3.3762637E2,1.6021986E1,1.1463089E0,8.5817276E1,2.667188E2,3.4089156E4,4.4958804E3,1.0587437E3,1.1122379E2,2.967262E2,3.6774885E3,4.339893E1,1.735576E3,4.2030087E0,1.2552902E1,3.8280066E3,4.0139521E3,9.526994E3,9.093877E3,7.9237812E3,6.562915E4,1.8315512E4,2.0526057E3,1.4416423E3,4.936863E3,3.3492053E3,1.1040223E2,9.691082E3,1.13343475E2,8.931588E2,2.3731528E2,1.4327831E0,3.3619357E2,8.4692116E1,1.1251532E0,2.3067807E2,3.6040752E1,2.7172943E2,3.3817426E4,2.93752E2,4.2021284E3,7.122181E1,9.8752185E2,1.07996475E2,3.2273183E0,2.7602438E2,2.0701813E1,3.222325E3,4.551635E2,2.3049065E1,2.0349865E1,1.6124233E3,1.2315279E2,1.4136347E0,2.7893736E0,8.048438E0,4.504464E0,8.304182E2,2.9975884E3,9.5262335E2,3.0613286E3,9.340401E3,1.8659291E2,2.924468E3,6.1694087E3,5.363932E3,2.5598489E3,2.844509E3,6.2784637E4,1.5994807E4,2.3207058E3,1.7181963E2,1.880786E3,3.9827988E1,1.4018143E3,3.4398523E3,1.4970103E3,3.3290796E3,2.0125689E1,3.9331238E1,7.107099E1,9.9405846E1,9.591677E3,4.1295227E1,7.204825E1,6.965098E2,1.96649E2,2.22341E2,1.4974262E1],"tree_param":{"num_deleted":"0","num_feature":"2381","num_nodes":"121","size_leaf_vector":"1"}},{"base_weights":[-1.2126682E-2,-1.0634773E0,3.176473E-1,-1.2739582E0,8.316973E-2,5.193324E-1,-9.004999E-1,1.0633447E0,-1.2968565E0,5.566249E-1,-1.3495518E0,-2.561437E-1,7.098583E-1,-5.872208E-1,-1.1884587E0,1.1766919E0,-1.2635318E0,6.193518E-1,-1.3153014E0,-6.151789E-1,8.887806E-1,-1.3715403E0,8.0948E-1,5.0475943E-1,-4.722335E-1,-9.907304E-1,7.5876033E-1,-2.7539444E-1,-1.1806283E0,-1.2667195E0,-5.238633E-1,1.1943719E0,-1.06445484E-1,-1.3687107E-1,1.4402873E-2,-1.2576705E0,1.1877294E0,-8.9897877E-1,-1.3786701E0,-9.0019435E-1,7.849305E-1,-8.4875846E-1,1.0224144E0,-6.986632E-1,-1.388378E0,1.1187459E0,-1.0517216E-1,-1.9744942E-1,9.664479E-1,-8.013497E-1,-6.963117E-2,-1.4018768E0,2.4640141E-1,8.927552E-1,1.2691668E-1,-9.6923536E-1,-6.663516E-3,-1.3012319E0,-6.649314E-1,-2.178367E-1,-1.2965745E0,-1.020854E0,7.3859423E-1,8.149592E-3,1.22242585E-1,-1.3138278E-1,1.4306758E-1,1.2466522E-1,7.8621246E-2,-3.381248E-2,-1.3807844E-1,-1.3944843E-1,-3.561346E-2,-1.18756704E-1,-3.6489803E-2,-1.0932465E-3,1.2646452E-1,4.034118E-2,-1.1898414E-1,1.0548543E-1,-9.392754E-2,3.9779466E-2,-1.1056694E-1,-1.4131245E-1,-1.0595422E-1,1.4231972E-1,-9.704204E-2,1.4548901E-2,-1.0092457E-1,1.0514163E-1,-1.14921175E-1,-8.426479E-2,1.1638385E-1,-6.236114E-2,4.2447165E-2,5.238492E-4,-1.4317855E-1,7.7674046E-2,-9.3245946E-2,9.291397E-2,-4.765216E-2,1.2174217E-1,-6.3078688E-3,1.5026864E-1,-1.1668171E-1,-3.5717625E-2,6.6231124E-2,2.5090197E-2,-1.3217197E-1,-1.122609E-1,2.083361E-3,-1.284033E-1,8.207728E-2,-1.3104217E-1,2.2469645E-2,-1.3136107E-1,1.1274924E-2,9.999483E-2,-1.3478136E-1],"categories":[],"categories_nodes":[],"categories_segments":[],"categories_sizes":[],"default_left":[0,0,0,0,0,0,0,0,0,0,0,0,0,0,0,0,0,0,0,0,0,0,0,0,0,0,0,0,0,0,0,0,0,0,0,0,0,0,0,0,0,0,0,0,0,0,0,0,0,0,0,0,0,0,0,0,0,0,0,0,0,0,0,0,0,0,0,0,0,0,0,0,0,0,0,0,0,0,0,0,0,0,0,0,0,0,0,0,0,0,0,0,0,0,0,0,0,0,0,0,0,0,0,0,0,0,0,0,0,0,0,0,0,0,0,0,0,0,0],"id":2,"left_children":[1,3,5,7,9,11,13,15,17,19,21,23,25,27,29,31,33,35,37,39,41,43,45,47,49,51,53,55,57,59,61,63,-1,-1,-1,65,67,69,71,73,75,77,79,81,83,85,-1,87,89,91,93,95,97,99,101,103,105,107,109,111,113,115,117,-1,-1,-1,-1,-1,-1,-1,-1,-1,-1,-1,-1,-1,-1,-1,-1,-1,-1,-1,-1,-1,-1,-1,-1,-1,-1,-1,-1,-1,-1,-1,-1,-1,-1,-1,-1,-1,-1,-1,-1,-1,-1,-1,-1,-1,-1,-1,-1,-1,-1,-1,-1,-1,-1,-1,-1],"loss_changes":[6.442343E4,1.0708051E4,3.4751547E4,2.0076523E3,4.669013E3,1.7930258E4,1.8118984E3,9.755234E1,1.3129023E3,2.0141282E3,8.227368E1,3.9358547E3,8.1024727E3,1.7807336E3,5.438213E2,1.50538025E1,2.7732487E0,3.798108E2,9.688086E2,4.568834E2,9.368911E2,1.8208496E1,1.1459829E1,1.716703E3,2.470101E3,1.3856589E3,8.0173945E3,1.1767108E3,2.0533008E2,2.9297266E2,6.9379565E2,1.0689667E1,0E0,0E0,0E0,1.4396027E1,5.471588E0,1.3128796E3,5.155117E2,1.4574573E2,7.403546E1,1.2367262E2,2.3923291E2,1.9780043E1,1.193335E1,1.143325E1,0E0,5.8507263E2,5.75469E2,8.334385E2,2.2957395E3,8.604321E1,4.2599072E2,3.8928594E3,3.4332346E3,8.622693E2,1.0671544E3,8.5742676E1,1.9788821E2,2.8939386E2,1.9210547E2,2.6331567E2,1.7179942E2,0E0,0E0,0E0,0E0,0E0,0E0,0E0,0E0,0E0,0E0,0E0,0E0,0E0,0E0,0E0,0E0,0E0,0E0,0E0,0E0,0E0,0E0,0E0,0E0,0E0,0E0,0E0,0E0,0E0,0E0,0E0,0E0,0E0,0E0,0E0,0E0,0E0,0E0,0E0,0E0,0E0,0E0,0E0,0E0,0E0,0E0,0E0,0E0,0E0,0E0,0E0,0E0,0E0,0E0,0E0,0E0],"parents":[2147483647,0,0,1,1,2,2,3,3,4,4,5,5,6,6,7,7,8,8,9,9,10,10,11,11,12,12,13,13,14,14,15,15,16,16,17,17,18,18,19,19,20,20,21,21,22,22,23,23,24,24,25,25,26,26,27,27,28,28,29,29,30,30,31,31,35,35,36,36,37,37,38,38,39,39,40,40,41,41,42,42,43,43,44,44,45,45,47,47,48,48,49,49,50,50,51,51,52,52,53,53,54,54,55,55,56,56,57,57,58,58,59,59,60,60,61,61,62,62],"right_children":[2,4,6,8,10,12,14,16,18,20,22,24,26,28,30,32,34,36,38,40,42,44,46,48,50,52,54,56,58,60,62,64,-1,-1,-1,66,68,70,72,74,76,78,80,82,84,86,-1,88,90,92,94,96,98,100,102,104,106,108,110,112,114,116,118,-1,-1,-1,-1,-1,-1,-1,-1,-1,-1,-1,-1,-1,-1,-1,-1,-1,-1,-1,-1,-1,-1,-1,-1,-1,-1,-1,-1,-1,-1,-1,-1,-1,-1,-1,-1,-1,-1,-1,-1,-1,-1,-1,-1,-1,-1,-1,-1,-1,-1,-1,-1,-1,-1,-1,-1],"split_conditions":[0E0,6.0017433E0,5.992E3,-1.1387677E1,3.048E3,2.2413289E-4,1E1,6.4E1,8.9548215E-5,2.5371476E-3,6E0,9.666032E-5,0E0,3.7504E6,1E0,2.4977E4,4.2399303E-3,1E0,0E0,1.14583336E-1,1E0,0E0,1.3377926E-2,6.951801E-4,5.8252425E-3,0E0,3.607432E-3,1.5263364E-3,1E0,0E0,2E1,2.7126736E-5,-1.06445484E-1,-1.3687107E-1,1.4402873E-2,2.1707589E-2,2.3255814E-2,3.296E3,3.7020598E-2,4.087002E-3,1.0031881E-2,1.024E3,7.6E1,7.7E1,1E0,1.0086048E-2,-1.0517216E-1,2.48E2,6E0,2E0,3.5288648E-3,1.69984E5,7.7244E4,0E0,8.72E2,0E0,4E0,-1E0,1.1000524E-2,2.456914E-3,1E0,3E0,2.383872E6,8.149592E-3,1.22242585E-1,-1.3138278E-1,1.4306758E-1,1.2466522E-1,7.8621246E-2,-3.381248E-2,-1.3807844E-1,-1.3944843E-1,-3.561346E-2,-1.18756704E-1,-3.6489803E-2,-1.0932465E-3,1.2646452E-1,4.034118E-2,-1.1898414E-1,1.0548543E-1,-9.392754E-2,3.9779466E-2,-1.1056694E-1,-1.4131245E-1,-1.0595422E-1,1.4231972E-1,-9.704204E-2,1.4548901E-2,-1.0092457E-1,1.0514163E-1,-1.14921175E-1,-8.426479E-2,1.1638385E-1,-6.236114E-2,4.2447165E-2,5.238492E-4,-1.4317855E-1,7.7674046E-2,-9.3245946E-2,9.291397E-2,-4.765216E-2,1.2174217E-1,-6.3078688E-3,1.5026864E-1,-1.1668171E-1,-3.5717625E-2,6.6231124E-2,2.5090197E-2,-1.3217197E-1,-1.122609E-1,2.083361E-3,-1.284033E-1,8.207728E-2,-1.3104217E-1,2.2469645E-2,-1.3136107E-1,1.1274924E-2,9.999483E-2,-1.3478136E-1],"split_indices":[637,611,2359,784,2359,503,679,2359,128,497,689,527,2141,2360,930,512,83,1614,2159,256,1060,940,593,55,533,2092,123,509,2100,1490,620,426,0,0,0,308,548,2359,484,195,554,736,2371,2351,1859,572,0,2375,683,852,589,685,514,639,836,2282,692,1385,531,91,1059,691,2362,0,0,0,0,0,0,0,0,0,0,0,0,0,0,0,0,0,0,0,0,0,0,0,0,0,0,0,0,0,0,0,0,0,0,0,0,0,0,0,0,0,0,0,0,0,0,0,0,0,0,0,0,0,0,0,0],"split_type":[0,0,0,0,0,0,0,0,0,0,0,0,0,0,0,0,0,0,0,0,0,0,0,0,0,0,0,0,0,0,0,0,0,0,0,0,0,0,0,0,0,0,0,0,0,0,0,0,0,0,0,0,0,0,0,0,0,0,0,0,0,0,0,0,0,0,0,0,0,0,0,0,0,0,0,0,0,0,0,0,0,0,0,0,0,0,0,0,0,0,0,0,0,0,0,0,0,0,0,0,0,0,0,0,0,0,0,0,0,0,0,0,0,0,0,0,0,0,0],"sum_hessian":[1.8581264E5,4.436634E4,1.4144631E5,3.748534E4,6.8809985E3,1.21354555E5,2.0091748E4,3.632365E2,3.7122105E4,5.1723594E3,1.7086392E3,2.393486E4,9.7419695E4,9.624262E3,1.0467487E4,3.468357E2,1.6400818E1,3.536088E2,3.6768496E4,1.1421488E3,4.0302104E3,1.691774E3,1.686503E1,5.29358E3,1.8641277E4,2.7225518E3,9.469715E4,6.3099478E3,3.3143142E3,9.363914E3,1.1035725E3,3.445844E2,2.2512908E0,1.5286171E1,1.1146468E0,8.190644E1,2.7170233E2,4.85924E3,3.1909256E4,9.4926685E2,1.9288196E2,2.87444E2,3.7427664E3,4.2337944E1,1.6494362E3,1.4804035E1,2.060995E0,2.100056E3,3.1935244E3,1.0256161E4,8.385117E3,2.0433387E3,6.792131E2,7.8128125E4,1.6569021E4,1.7608842E3,4.5490635E3,2.6848892E3,6.2942523E2,2.5938464E2,9.10453E3,7.9198413E2,3.115884E2,8.568864E0,3.3601553E2,8.073132E1,1.1751184E0,2.3509688E2,3.6605465E1,2.2462068E3,2.6130334E3,3.1422916E4,4.8633975E2,6.1687854E2,3.3238834E2,7.290585E1,1.19976105E2,6.149676E1,2.2594724E2,3.682335E3,6.043141E1,1.1467528E1,3.0870417E1,1.5309293E3,1.1850682E2,1.3199292E1,1.6047425E0,1.4769486E3,6.2310724E2,3.0707031E3,1.2282143E2,1.0045625E4,2.1053629E2,3.9529124E3,4.432205E3,4.2544994E1,2.0007938E3,4.6869873E2,2.1051434E2,7.610616E4,2.0219718E3,2.4576406E3,1.4111381E4,1.2984192E2,1.6310422E3,2.9853435E3,1.5637198E3,3.483167E1,2.6500574E3,3.7710764E2,2.5231761E2,1.27875885E2,1.3150874E2,9.022542E3,8.198731E1,6.2930524E2,1.6267888E2,2.77365E2,3.4223415E1],"tree_param":{"num_deleted":"0","num_feature":"2381","num_nodes":"119","size_leaf_vector":"1"}},{"base_weights":[-1.247703E-2,-1.0055045E0,2.8546295E-1,-1.2114701E0,7.42027E-2,4.8386294E-1,-7.433851E-1,9.504024E-1,-1.2339252E0,5.0013155E-1,-1.2879658E0,-1.6777028E-1,6.6599953E-1,-8.672655E-1,2.3838228E-1,1.0495557E0,-1.2034539E0,-3.3721763E-1,-1.2728239E0,-5.691145E-1,7.9379606E-1,-1.3096553E0,7.22391E-1,5.852804E-2,-8.0599767E-1,8.4770924E-1,2.9436857E-1,-5.458039E-1,-1.131761E0,5.868841E-1,-1.0040256E0,1.1209197E0,4.7623414E-1,1.8420588E-2,-1.3120948E-1,1.1801459E0,-9.364162E-1,-1.9659391E-1,-1.2927216E0,-8.382134E-1,7.0029265E-1,-7.915195E-1,9.1067797E-1,-1.3200942E0,-2.462485E-1,1.0018764E0,-1.00343764E-1,8.6018723E-1,-2.0480731E-1,-9.5421517E-1,9.600295E-1,-8.378024E-1,8.89425E-1,4.696247E-1,-6.3178635E-1,-8.024782E-1,-3.996596E-3,1.1855153E0,-1.1723441E0,1.0241176E0,-2.5730896E-1,-1.1705252E0,5.526151E-1,1.1572429E-1,1.3509807E-2,7.965372E-2,-3.534422E-2,1.2407923E-1,-9.761443E-2,1.1348891E-1,-1.02960624E-1,1.2106931E-1,-1.269735E-1,-1.2979203E-1,1.1841841E-1,-9.0712324E-2,1.24456E-1,9.807103E-2,-3.8451593E-2,3.599318E-2,-1.1226439E-1,9.9766426E-2,2.8813524E-2,7.386916E-2,-1.3245521E-1,7.8769445E-2,-1.175425E-1,1.2761053E-1,-9.2766665E-2,9.8400496E-2,-1.06338434E-1,-3.8958475E-2,7.807406E-2,-7.806135E-2,-1.24743454E-1,-3.5882227E-2,1.3852616E-1,-9.630636E-2,8.4102176E-2,9.7887866E-2,4.521872E-2,5.825938E-2,-5.7003718E-2,1.8567188E-2,-1.3135937E-1,-8.700635E-2,1.3105153E-1,3.4535922E-2,-1.0121595E-1,1.288628E-1,-1.0818384E-1,-5.3099718E-2,-1.2176883E-1,-9.479293E-2,1.1655153E-1,-8.191081E-2,7.228773E-2,-1.2287742E-1,1.16081275E-1,-1.01808004E-1,1.1913904E-1],"categories":[],"categories_nodes":[],"categories_segments":[],"categories_sizes":[],"default_left":[0,0,0,0,0,0,0,0,0,0,0,0,0,0,0,0,0,0,0,0,0,0,0,0,0,0,0,0,0,0,0,0,0,0,0,0,0,0,0,0,0,0,0,0,0,0,0,0,0,0,0,0,0,0,0,0,0,0,0,0,0,0,0,0,0,0,0,0,0,0,0,0,0,0,0,0,0,0,0,0,0,0,0,0,0,0,0,0,0,0,0,0,0,0,0,0,0,0,0,0,0,0,0,0,0,0,0,0,0,0,0,0,0,0,0,0,0,0,0,0,0],"id":3,"left_children":[1,3,5,7,9,11,13,15,17,19,21,23,25,27,29,31,33,35,37,39,41,43,45,47,49,51,53,55,57,59,61,63,65,-1,-1,67,69,71,73,75,77,79,81,83,85,87,-1,89,91,93,95,97,99,101,103,105,107,109,111,113,115,117,119,-1,-1,-1,-1,-1,-1,-1,-1,-1,-1,-1,-1,-1,-1,-1,-1,-1,-1,-1,-1,-1,-1,-1,-1,-1,-1,-1,-1,-1,-1,-1,-1,-1,-1,-1,-1,-1,-1,-1,-1,-1,-1,-1,-1,-1,-1,-1,-1,-1,-1,-1,-1,-1,-1,-1,-1,-1,-1],"loss_changes":[5.4321062E4,9.423164E3,2.8828543E4,1.7286484E3,3.9396274E3,1.4052359E4,2.7770576E3,7.950833E1,1.2280625E3,1.624674E3,7.147363E1,3.735701E3,6.248508E3,1.7231729E3,1.1085631E3,1.3818695E1,2.742752E0,1.3336793E3,7.2259375E2,3.815126E2,7.527495E2,1.7442627E1,9.643599E0,4.0313127E3,1.7731226E3,4.3704375E3,4.9328037E3,1.27294E3,1.0472852E3,7.3811914E2,1.4602771E2,1.0987915E1,1.1062906E1,0E0,0E0,5.552942E1,2.0409271E2,9.286999E2,4.2829688E2,1.3324847E2,5.987613E1,1.0686206E2,2.0442798E2,1.5522705E1,1.7054892E1,9.604135E0,0E0,1.1256494E3,2.6180176E3,3.1700635E2,2.947727E2,3.1655774E2,2.3715898E3,3.0016128E3,2.6955007E3,8.8811523E2,1.0370327E3,4.6263428E1,3.1723047E2,3.6837854E2,3.7663217E2,7.028229E1,5.627434E1,0E0,0E0,0E0,0E0,0E0,0E0,0E0,0E0,0E0,0E0,0E0,0E0,0E0,0E0,0E0,0E0,0E0,0E0,0E0,0E0,0E0,0E0,0E0,0E0,0E0,0E0,0E0,0E0,0E0,0E0,0E0,0E0,0E0,0E0,0E0,0E0,0E0,0E0,0E0,0E0,0E0,0E0,0E0,0E0,0E0,0E0,0E0,0E0,0E0,0E0,0E0,0E0,0E0,0E0,0E0,0E0,0E0,0E0],"parents":[2147483647,0,0,1,1,2,2,3,3,4,4,5,5,6,6,7,7,8,8,9,9,10,10,11,11,12,12,13,13,14,14,15,15,16,16,17,17,18,18,19,19,20,20,21,21,22,22,23,23,24,24,25,25,26,26,27,27,28,28,29,29,30,30,31,31,32,32,35,35,36,36,37,37,38,38,39,39,40,40,41,41,42,42,43,43,44,44,45,45,47,47,48,48,49,49,50,50,51,51,52,52,53,53,54,54,55,55,56,56,57,57,58,58,59,59,60,60,61,61,62,62],"right_children":[2,4,6,8,10,12,14,16,18,20,22,24,26,28,30,32,34,36,38,40,42,44,46,48,50,52,54,56,58,60,62,64,66,-1,-1,68,70,72,74,76,78,80,82,84,86,88,-1,90,92,94,96,98,100,102,104,106,108,110,112,114,116,118,120,-1,-1,-1,-1,-1,-1,-1,-1,-1,-1,-1,-1,-1,-1,-1,-1,-1,-1,-1,-1,-1,-1,-1,-1,-1,-1,-1,-1,-1,-1,-1,-1,-1,-1,-1,-1,-1,-1,-1,-1,-1,-1,-1,-1,-1,-1,-1,-1,-1,-1,-1,-1,-1,-1,-1,-1,-1,-1],"split_conditions":[0E0,6.0017433E0,5.288E3,-1.1387677E1,3.048E3,8.4198633E-4,1E0,6.4E1,0E0,2.5371476E-3,6E0,1.6142735E-2,3.2577396E-3,1.6E1,1E0,3.175951E-3,1.3950893E-3,7.2E1,-5.7344E4,1.14583336E-1,1E0,7.176684E-2,1.3377926E-2,7.04E2,4.509804E-1,-1E0,1.76784E5,4E0,1E0,0E0,1E0,1.4572706E-2,3.7202382E-4,1.8420588E-2,-1.3120948E-1,1.1056603E-2,-4.4472E4,5.555E3,8.390989E-2,1.2761315E-2,5.9333674E-6,1.024E3,2.6E2,0E0,0E0,1.0086048E-2,-1.00343764E-1,4.2379316E-2,5.2317977E-3,4.656E3,6.394824E-2,1E0,1.918916E-2,6.3E1,1.3009311E-2,3.846154E-2,4.789248E6,1.6128E5,0E0,2.4414062E-3,2E0,2E0,1.2056327E-3,1.1572429E-1,1.3509807E-2,7.965372E-2,-3.534422E-2,1.2407923E-1,-9.761443E-2,1.1348891E-1,-1.02960624E-1,1.2106931E-1,-1.269735E-1,-1.2979203E-1,1.1841841E-1,-9.0712324E-2,1.24456E-1,9.807103E-2,-3.8451593E-2,3.599318E-2,-1.1226439E-1,9.9766426E-2,2.8813524E-2,7.386916E-2,-1.3245521E-1,7.8769445E-2,-1.175425E-1,1.2761053E-1,-9.2766665E-2,9.8400496E-2,-1.06338434E-1,-3.8958475E-2,7.807406E-2,-7.806135E-2,-1.24743454E-1,-3.5882227E-2,1.3852616E-1,-9.630636E-2,8.4102176E-2,9.7887866E-2,4.521872E-2,5.825938E-2,-5.7003718E-2,1.8567188E-2,-1.3135937E-1,-8.700635E-2,1.3105153E-1,3.4535922E-2,-1.0121595E-1,1.288628E-1,-1.0818384E-1,-5.3099718E-2,-1.2176883E-1,-9.479293E-2,1.1655153E-1,-8.191081E-2,7.228773E-2,-1.2287742E-1,1.16081275E-1,-1.01808004E-1,1.1913904E-1],"split_indices":[637,611,2359,784,2359,496,1793,2359,1765,497,689,578,125,2361,1235,40,96,2351,710,256,1060,497,593,2355,256,658,2364,692,640,1627,930,15,408,0,0,547,810,512,258,195,274,736,2353,850,951,572,0,468,558,2364,597,930,384,615,592,532,2360,736,1765,89,691,2140,176,0,0,0,0,0,0,0,0,0,0,0,0,0,0,0,0,0,0,0,0,0,0,0,0,0,0,0,0,0,0,0,0,0,0,0,0,0,0,0,0,0,0,0,0,0,0,0,0,0,0,0,0,0,0,0,0,0,0],"split_type":[0,0,0,0,0,0,0,0,0,0,0,0,0,0,0,0,0,0,0,0,0,0,0,0,0,0,0,0,0,0,0,0,0,0,0,0,0,0,0,0,0,0,0,0,0,0,0,0,0,0,0,0,0,0,0,0,0,0,0,0,0,0,0,0,0,0,0,0,0,0,0,0,0,0,0,0,0,0,0,0,0,0,0,0,0,0,0,0,0,0,0,0,0,0,0,0,0,0,0,0,0,0,0,0,0,0,0,0,0,0,0,0,0,0,0,0,0,0,0,0,0],"sum_hessian":[1.8360039E5,4.2372242E4,1.4122814E5,3.558408E4,6.7881626E3,1.1839729E5,2.2830854E4,3.6538196E2,3.5218695E4,5.171689E3,1.6164736E3,2.5863844E4,9.2533445E4,2.0272912E4,2.5579412E3,3.497919E2,1.5590044E1,1.4646525E3,3.3754043E4,1.1141348E3,4.0575544E3,1.5995647E3,1.6908968E1,1.9094393E4,6.769451E3,6.2145836E4,3.038761E4,9.152382E3,1.1120531E4,1.9980154E3,5.599259E2,3.1022195E2,3.956995E1,1.0814335E0,1.4508611E1,4.1436853E2,1.0502839E3,6.129266E2,3.3141117E4,9.195426E2,1.945922E2,2.7821692E2,3.7793374E3,1.5837761E3,1.57885475E1,1.4913342E1,1.9956254E0,4.720805E3,1.4373587E4,6.2457256E3,5.2372577E2,1.5004761E3,6.064536E4,2.555276E4,4.834851E3,6.209994E3,2.9423872E3,1.9091928E2,1.0929611E4,1.3161353E3,6.818801E2,5.0604675E2,5.387914E1,2.9903015E2,1.1191802E1,2.8577374E1,1.0992577E1,4.0344604E2,1.0922488E1,4.4737602E1,1.0055463E3,2.6512323E2,3.4780334E2,3.307218E4,6.893813E1,8.906397E2,2.890288E1,1.5469917E2,3.9893017E1,6.211863E1,2.1609828E2,3.3154724E3,4.6386508E2,3.0660112E0,1.5807102E3,7.5450473E0,8.243501E0,1.3354092E1,1.559251E0,4.435769E3,2.85036E2,1.2104715E4,2.2688723E3,3.9253613E3,2.3203643E3,1.2772976E2,3.9599603E2,1.3966918E3,1.0378423E2,5.0344273E4,1.0301083E4,2.3048736E4,2.5040237E3,2.199032E3,2.635819E3,6.0180903E3,1.919038E2,2.1856555E3,7.567315E2,1.8302739E2,7.8918934E0,7.2255414E2,1.0207058E4,8.767295E1,1.2284623E3,4.3355182E2,2.483283E2,4.941727E2,1.1874069E1,1.5405211E1,3.8473927E1],"tree_param":{"num_deleted":"0","num_feature":"2381","num_nodes":"121","size_leaf_vector":"1"}},{"base_weights":[-1.269938E-2,-9.5483804E-1,2.5735846E-1,-1.163014E0,3.97755E-2,4.3463054E-1,-6.9331336E-1,8.7533635E-1,-1.1845242E0,4.375587E-1,-1.2420657E0,-1.9530034E-1,5.874863E-1,-8.1128144E-1,2.146479E-1,9.64406E-1,-1.1434075E0,-1.2775286E0,-8.286E-1,-5.261368E-1,7.180536E-1,-1.2619112E0,6.492637E-1,1.6199285E-2,-7.84058E-1,-9.027439E-1,6.2744194E-1,-5.0284135E-1,-1.072067E0,5.089574E-1,-1.0251796E0,1.0211107E0,2.7323037E-1,2.2080334E-2,-1.260104E-1,-3.8952593E-2,-1.2898946E0,-2.838442E-1,-1.2870132E0,-7.052128E-1,1.0501701E0,-7.447251E-1,8.217349E-1,-6.0310143E-1,-1.278135E0,9.0471107E-1,-9.5991485E-2,7.389232E-1,-2.3100151E-1,-9.3662006E-1,8.6291444E-1,6.478652E-1,-1.196468E0,-8.440148E-1,6.685693E-1,-7.4465364E-1,-4.213451E-3,1.0538212E0,-1.1116378E0,9.4470656E-1,-1.6580768E-1,-1.0911913E0,9.6880686E-1,1.0468718E-1,-3.96265E-2,5.91998E-2,-1.1110214E-1,-7.337894E-2,1.2156113E-1,-1.2968422E-1,8.848563E-2,6.322083E-2,-6.689682E-2,-1.3057448E-1,-5.8118273E-2,9.1206245E-2,-8.191483E-2,1.13675356E-1,-1.02441564E-1,-9.2023976E-2,1.2835635E-1,8.502231E-2,-9.265804E-2,-1.22051455E-1,7.014817E-3,-1.3034193E-1,-9.687267E-2,1.15494035E-1,-8.88732E-2,8.534597E-2,-1.0338404E-1,-3.891402E-2,9.516784E-2,-9.8569624E-2,1.4060869E-2,-4.3276273E-2,1.22463726E-1,1.0158479E-1,-5.850205E-2,-1.6757382E-2,-1.3010353E-1,2.1073764E-2,-1.1040385E-1,-3.7276607E-2,7.204481E-2,-8.063065E-2,1.2197571E-1,-5.67118E-2,5.7436485E-2,1.143636E-1,-1.02522925E-1,-4.8736107E-2,-1.1572679E-1,-7.850176E-2,1.11307755E-1,-7.7966504E-2,6.6874914E-2,-1.1666211E-1,3.0823303E-2,1.6154842E-1,-9.2842095E-2],"categories":[],"categories_nodes":[],"categories_segments":[],"categories_sizes":[],"default_left":[0,0,0,0,0,0,0,0,0,0,0,0,0,0,0,0,0,0,0,0,0,0,0,0,0,0,0,0,0,0,0,0,0,0,0,0,0,0,0,0,0,0,0,0,0,0,0,0,0,0,0,0,0,0,0,0,0,0,0,0,0,0,0,0,0,0,0,0,0,0,0,0,0,0,0,0,0,0,0,0,0,0,0,0,0,0,0,0,0,0,0,0,0,0,0,0,0,0,0,0,0,0,0,0,0,0,0,0,0,0,0,0,0,0,0,0,0,0,0,0,0],"id":4,"left_children":[1,3,5,7,9,11,13,15,17,19,21,23,25,27,29,31,33,35,37,39,41,43,45,47,49,51,53,55,57,59,61,63,65,-1,-1,67,69,71,73,75,77,79,81,83,85,87,-1,89,91,93,95,97,99,101,103,105,107,109,111,113,115,117,119,-1,-1,-1,-1,-1,-1,-1,-1,-1,-1,-1,-1,-1,-1,-1,-1,-1,-1,-1,-1,-1,-1,-1,-1,-1,-1,-1,-1,-1,-1,-1,-1,-1,-1,-1,-1,-1,-1,-1,-1,-1,-1,-1,-1,-1,-1,-1,-1,-1,-1,-1,-1,-1,-1,-1,-1,-1,-1],"loss_changes":[4.6027484E4,8.344816E3,2.3695406E4,1.4622578E3,3.557768E3,1.1410691E4,2.3670732E3,6.378232E1,1.0906445E3,1.4397651E3,6.2843994E1,2.8815981E3,5.678824E3,1.5725635E3,9.2798315E2,1.282724E1,2.6961308E0,4.0039062E2,1.7065332E3,3.397703E2,6.262019E2,1.671167E1,8.193318E0,3.042033E3,1.5375466E3,1.1350831E3,5.621051E3,1.0805547E3,8.9256055E2,6.043247E2,6.5282776E1,1.1685852E1,1.2448E1,0E0,0E0,2.2708795E2,3.9227734E2,1.1028021E3,4.8311523E1,1.9959119E2,2.324524E1,9.85609E1,1.9265796E2,1.7213314E1,1.121875E1,8.158788E0,0E0,8.820276E2,2.3732905E3,2.9608154E2,2.4378503E2,1.808335E2,2.2509741E2,6.929342E2,4.8812383E3,7.318948E2,9.538406E2,3.742511E1,2.9577734E2,3.6453174E2,4.14009E2,5.026483E1,2.1333187E1,0E0,0E0,0E0,0E0,0E0,0E0,0E0,0E0,0E0,0E0,0E0,0E0,0E0,0E0,0E0,0E0,0E0,0E0,0E0,0E0,0E0,0E0,0E0,0E0,0E0,0E0,0E0,0E0,0E0,0E0,0E0,0E0,0E0,0E0,0E0,0E0,0E0,0E0,0E0,0E0,0E0,0E0,0E0,0E0,0E0,0E0,0E0,0E0,0E0,0E0,0E0,0E0,0E0,0E0,0E0,0E0,0E0,0E0],"parents":[2147483647,0,0,1,1,2,2,3,3,4,4,5,5,6,6,7,7,8,8,9,9,10,10,11,11,12,12,13,13,14,14,15,15,16,16,17,17,18,18,19,19,20,20,21,21,22,22,23,23,24,24,25,25,26,26,27,27,28,28,29,29,30,30,31,31,32,32,35,35,36,36,37,37,38,38,39,39,40,40,41,41,42,42,43,43,44,44,45,45,47,47,48,48,49,49,50,50,51,51,52,52,53,53,54,54,55,55,56,56,57,57,58,58,59,59,60,60,61,61,62,62],"right_children":[2,4,6,8,10,12,14,16,18,20,22,24,26,28,30,32,34,36,38,40,42,44,46,48,50,52,54,56,58,60,62,64,66,-1,-1,68,70,72,74,76,78,80,82,84,86,88,-1,90,92,94,96,98,100,102,104,106,108,110,112,114,116,118,120,-1,-1,-1,-1,-1,-1,-1,-1,-1,-1,-1,-1,-1,-1,-1,-1,-1,-1,-1,-1,-1,-1,-1,-1,-1,-1,-1,-1,-1,-1,-1,-1,-1,-1,-1,-1,-1,-1,-1,-1,-1,-1,-1,-1,-1,-1,-1,-1,-1,-1,-1,-1,-1,-1,-1,-1,-1,-1],"split_conditions":[0E0,5.9869895E0,5.288E3,-1.1387677E1,3.048E3,2.551789E-4,1E0,6.4E1,1E0,2.5371476E-3,6E0,1.6142735E-2,0E0,1.6E1,2.316E3,4.311275E-3,9.411591E-4,0E0,3.344E3,6.8448424E-2,1E0,0E0,1.3377926E-2,7.04E2,4.509804E-1,1.4222573E-7,-1E0,4E0,1E0,0E0,2E0,2.8147927E-2,2.8388784E-3,2.2080334E-2,-1.260104E-1,7.2954665E-3,8.04228E-3,2.9721466E-4,9.53311E-4,0E0,1.5946943E-3,1E0,7.6E1,1.5015476E9,1E0,1.0086048E-2,-9.5991485E-2,4.2379316E-2,3.914687E-3,7.564239E-3,2E0,3.8586098E-3,3.8401582E-3,4.304E3,0E0,4.1826718E-2,5.4710026E0,1.6128E5,0E0,1E0,2E0,1E0,2.4414062E-4,1.0468718E-1,-3.96265E-2,5.91998E-2,-1.1110214E-1,-7.337894E-2,1.2156113E-1,-1.2968422E-1,8.848563E-2,6.322083E-2,-6.689682E-2,-1.3057448E-1,-5.8118273E-2,9.1206245E-2,-8.191483E-2,1.13675356E-1,-1.02441564E-1,-9.2023976E-2,1.2835635E-1,8.502231E-2,-9.265804E-2,-1.22051455E-1,7.014817E-3,-1.3034193E-1,-9.687267E-2,1.15494035E-1,-8.88732E-2,8.534597E-2,-1.0338404E-1,-3.891402E-2,9.516784E-2,-9.8569624E-2,1.4060869E-2,-4.3276273E-2,1.22463726E-1,1.0158479E-1,-5.850205E-2,-1.6757382E-2,-1.3010353E-1,2.1073764E-2,-1.1040385E-1,-3.7276607E-2,7.204481E-2,-8.063065E-2,1.2197571E-1,-5.67118E-2,5.7436485E-2,1.143636E-1,-1.02522925E-1,-4.8736107E-2,-1.1572679E-1,-7.850176E-2,1.11307755E-1,-7.7966504E-2,6.6874914E-2,-1.1666211E-1,3.0823303E-2,1.6154842E-1,-9.2842095E-2],"split_indices":[637,611,2359,784,2359,502,1793,2359,1451,497,689,578,2141,2361,2375,40,250,874,2359,584,1060,940,593,2355,256,333,658,692,640,1430,2257,595,579,0,0,554,211,386,308,874,441,927,2371,626,1859,572,0,468,55,19,1281,105,104,2364,1597,532,786,736,1765,1851,691,930,378,0,0,0,0,0,0,0,0,0,0,0,0,0,0,0,0,0,0,0,0,0,0,0,0,0,0,0,0,0,0,0,0,0,0,0,0,0,0,0,0,0,0,0,0,0,0,0,0,0,0,0,0,0,0,0,0,0,0],"split_type":[0,0,0,0,0,0,0,0,0,0,0,0,0,0,0,0,0,0,0,0,0,0,0,0,0,0,0,0,0,0,0,0,0,0,0,0,0,0,0,0,0,0,0,0,0,0,0,0,0,0,0,0,0,0,0,0,0,0,0,0,0,0,0,0,0,0,0,0,0,0,0,0,0,0,0,0,0,0,0,0,0,0,0,0,0,0,0,0,0,0,0,0,0,0,0,0,0,0,0,0,0,0,0,0,0,0,0,0,0,0,0,0,0,0,0,0,0,0,0,0,0],"sum_hessian":[1.8090098E5,4.0301258E4,1.4059973E5,3.332587E4,6.975388E3,1.1850298E5,2.209675E4,3.4759055E2,3.2978277E4,5.323919E3,1.6514692E3,2.3140174E4,9.5362805E4,1.9556016E4,2.540735E3,3.3340265E2,1.4187893E1,2.614412E4,6.83416E3,1.2000464E3,4.1238726E3,1.6346498E3,1.6819452E1,1.7025184E4,6.1149907E3,2.4895142E3,9.287329E4,8.960754E3,1.0595262E4,2.053796E3,4.8693927E2,3.0768274E2,2.5719896E1,1.0477178E0,1.3140176E1,2.584832E2,2.5885635E4,3.1237122E3,3.7104478E3,1.0781195E3,1.2192687E2,2.7254282E2,3.8513296E3,4.0204727E1,1.5944451E3,1.4893051E1,1.9264017E0,4.338633E3,1.2686551E4,5.5969644E3,5.1802594E2,3.9628204E2,2.0932322E3,2.5247065E3,9.0348586E4,6.0340264E3,2.926727E3,1.9314522E2,1.0402116E4,1.2476741E3,8.061219E2,4.7177377E2,1.51654825E1,3.0244708E2,5.2356544E0,2.1370905E1,4.348991E0,1.6661758E2,9.186559E1,2.5803605E4,8.203023E1,9.243707E2,2.1993416E3,3.613696E3,9.675172E1,7.049285E1,1.00762665E3,1.1747603E2,4.4508452E0,2.5133984E2,2.120299E1,3.7900852E3,6.1244366E1,2.0548012E1,1.9656715E1,1.4710232E3,1.2342194E2,1.338196E1,1.5110905E0,4.075817E3,2.628158E2,1.1190866E4,1.495684E3,5.3531714E3,2.4379337E2,1.1301483E2,4.0501108E2,3.0532645E2,9.095559E1,1.9335097E2,1.8998812E3,4.993494E2,2.0253572E3,4.2872207E3,8.606137E4,5.8509834E3,1.8304301E2,1.483467E3,1.4432599E3,1.8557819E2,7.567037E0,7.09328E2,9.692788E3,1.1035033E2,1.1373237E3,4.6451453E2,3.416074E2,4.4780325E2,2.3970512E1,1.142107E1,3.7444127E0],"tree_param":{"num_deleted":"0","num_feature":"2381","num_nodes":"121","size_leaf_vector":"1"}},{"base_weights":[-1.2841828E-2,-9.095119E-1,2.32511E-1,-1.153042E0,-9.9995695E-2,3.91329E-1,-6.475123E-1,8.09284E-1,-1.1755188E0,-1.1135846E0,2.8136992E-1,-1.8236415E-1,5.2687424E-1,-4.7420347E-1,-1.20963E0,8.873089E-1,-1.0835466E0,-7.822331E-1,-1.2425644E0,-1.2115542E0,-2.7530158E-1,5.447004E-1,-1.1523895E0,-5.657473E-1,1.15027376E-1,-1.3867454E-1,6.048257E-1,-6.059731E-1,3.377791E-1,3.9709237E-1,-1.2481148E0,9.1447747E-1,-8.521718E-1,2.5524518E-2,-1.2110942E-1,-2.6778993E-1,-1.2253108E0,8.863833E-1,-1.2500505E0,-1.2344722E0,1.1304821E0,9.1971827E-1,-1.1388916E0,-1.7059262E-1,8.062234E-1,1.0250592E0,-1.1850325E0,2.1770693E-2,-8.02947E-1,2.743476E-1,-1.0969751E0,4.019416E-1,-8.673447E-1,-2.4038152E-1,6.784893E-1,-8.6130047E-1,-9.586329E-2,7.340584E-1,-2.973192E-1,-1.215658E0,1.2271634E0,1.4995836E0,-1.25979E0,9.367908E-2,-1.20401315E-1,-1.4607976E-1,6.628733E-2,9.4322324E-2,-5.3394347E-2,1.5930766E-1,-1.2354924E-1,1.494773E-1,-5.7653572E-2,-1.2569763E-1,8.205109E-2,-1.2471523E-1,1.9572681E-1,-8.206734E-2,1.3178617E-1,-1.24423675E-1,1.3714793E-1,-1.22342885E-1,1.5363951E-1,9.579085E-2,-6.565749E-2,8.372282E-2,-6.331027E-2,-3.0360753E-2,1.5428892E-1,-1.2533143E-1,-6.921734E-2,-8.372976E-2,2.3857001E-2,-8.529486E-2,1.05593E-1,-1.07515514E-1,3.949183E-2,-1.17542386E-1,7.6095484E-2,8.331796E-2,-1.3497916E-2,-1.1233576E-1,-3.6815676E-4,4.110106E-2,-1.1428871E-1,7.732409E-2,1.9493626E-2,-9.027098E-2,8.331644E-2,-7.286012E-2,3.2536276E-2,9.747287E-2,-4.943927E-3,-5.4906745E-2,4.9497083E-2,3.035356E-2,-1.3229634E-1,1.5570469E-1,-8.671914E-2,-7.328912E-2,2.4830437E-1,-1.2887846E-1,-8.503033E-2],"categories":[],"categories_nodes":[],"categories_segments":[],"categories_sizes":[],"default_left":[0,0,0,0,0,0,0,0,0,0,0,0,0,0,0,0,0,0,0,0,0,0,0,0,0,0,0,0,0,0,0,0,0,0,0,0,0,0,0,0,0,0,0,0,0,0,0,0,0,0,0,0,0,0,0,0,0,0,0,0,0,0,0,0,0,0,0,0,0,0,0,0,0,0,0,0,0,0,0,0,0,0,0,0,0,0,0,0,0,0,0,0,0,0,0,0,0,0,0,0,0,0,0,0,0,0,0,0,0,0,0,0,0,0,0,0,0,0,0,0,0,0,0],"id":5,"left_children":[1,3,5,7,9,11,13,15,17,19,21,23,25,27,29,31,33,35,37,39,41,43,45,47,49,51,53,55,57,59,61,63,65,-1,-1,67,69,71,73,75,77,79,81,83,85,87,89,91,93,95,97,99,101,103,105,107,109,111,113,115,117,119,121,-1,-1,-1,-1,-1,-1,-1,-1,-1,-1,-1,-1,-1,-1,-1,-1,-1,-1,-1,-1,-1,-1,-1,-1,-1,-1,-1,-1,-1,-1,-1,-1,-1,-1,-1,-1,-1,-1,-1,-1,-1,-1,-1,-1,-1,-1,-1,-1,-1,-1,-1,-1,-1,-1,-1,-1,-1,-1,-1,-1],"loss_changes":[3.9145234E4,7.536033E3,1.9525969E4,1.2970977E3,3.4180103E3,9.20299E3,2.0801729E3,5.0197342E1,7.651328E2,1.98198E2,2.4264739E3,2.578929E3,4.9666133E3,1.747093E3,3.1168652E2,1.5936707E1,2.6397266E0,9.648396E2,3.966875E2,1.17555176E2,2.6343597E2,1.01569763E3,7.2100586E1,1.3770203E3,2.4600974E3,3.954444E3,5.335539E3,1.8295483E3,5.741035E2,1.6010457E2,1.5956787E2,1.6078644E1,5.993746E0,0E0,0E0,6.3245233E2,6.724219E1,7.879007E1,3.5572656E2,8.919873E1,8.939888E0,1.0651565E2,3.536035E1,7.982156E2,1.7794482E2,1.09718895E1,3.2214355E1,5.2967126E2,6.551621E2,1.8324652E3,2.1663428E2,1.3344855E3,9.453508E2,4.0395862E3,3.6113633E3,6.57626E2,1.2494423E3,2.648708E2,1.7516364E2,7.046623E0,5.5737396E1,4.848205E1,5.7020996E1,0E0,0E0,0E0,0E0,0E0,0E0,0E0,0E0,0E0,0E0,0E0,0E0,0E0,0E0,0E0,0E0,0E0,0E0,0E0,0E0,0E0,0E0,0E0,0E0,0E0,0E0,0E0,0E0,0E0,0E0,0E0,0E0,0E0,0E0,0E0,0E0,0E0,0E0,0E0,0E0,0E0,0E0,0E0,0E0,0E0,0E0,0E0,0E0,0E0,0E0,0E0,0E0,0E0,0E0,0E0,0E0,0E0,0E0,0E0,0E0],"parents":[2147483647,0,0,1,1,2,2,3,3,4,4,5,5,6,6,7,7,8,8,9,9,10,10,11,11,12,12,13,13,14,14,15,15,16,16,17,17,18,18,19,19,20,20,21,21,22,22,23,23,24,24,25,25,26,26,27,27,28,28,29,29,30,30,31,31,32,32,35,35,36,36,37,37,38,38,39,39,40,40,41,41,42,42,43,43,44,44,45,45,46,46,47,47,48,48,49,49,50,50,51,51,52,52,53,53,54,54,55,55,56,56,57,57,58,58,59,59,60,60,61,61,62,62],"right_children":[2,4,6,8,10,12,14,16,18,20,22,24,26,28,30,32,34,36,38,40,42,44,46,48,50,52,54,56,58,60,62,64,66,-1,-1,68,70,72,74,76,78,80,82,84,86,88,90,92,94,96,98,100,102,104,106,108,110,112,114,116,118,120,122,-1,-1,-1,-1,-1,-1,-1,-1,-1,-1,-1,-1,-1,-1,-1,-1,-1,-1,-1,-1,-1,-1,-1,-1,-1,-1,-1,-1,-1,-1,-1,-1,-1,-1,-1,-1,-1,-1,-1,-1,-1,-1,-1,-1,-1,-1,-1,-1,-1,-1,-1,-1,-1,-1,-1,-1,-1,-1,-1,-1],"split_conditions":[0E0,3.3776013E-3,5.288E3,-1.1387677E1,1E0,2.2413289E-4,2E0,6.4E1,0E0,5.9424993E-2,3.296E3,8.156607E-4,0E0,1E0,-4.102959E0,2.8147927E-2,0E0,3.296E3,-4.096E3,1E0,1.024E3,3.6524837E-3,-3E0,3.5548478E-3,0E0,1E0,1E0,3E0,2.0345052E-4,1.3976491E-3,1.5292325E-4,1.15404E5,6.9547086E-3,2.5524518E-2,-1.2110942E-1,3.3654321E-3,0E0,2.95287E-3,8.04228E-3,1.48E2,3.6010742E-3,3.256E4,1E0,1.7E1,3.72E2,3.4390006E-4,2.2687294E-2,-2.49095E5,6.5E1,-4.096E4,7.94852E-3,0E0,1.5132727E9,8.272E3,3.5151069E-3,3.846154E-2,1.0692911E-3,0E0,2E0,7.4095186E-3,1.8220458E-3,1.1E1,1E0,9.367908E-2,-1.20401315E-1,-1.4607976E-1,6.628733E-2,9.4322324E-2,-5.3394347E-2,1.5930766E-1,-1.2354924E-1,1.494773E-1,-5.7653572E-2,-1.2569763E-1,8.205109E-2,-1.2471523E-1,1.9572681E-1,-8.206734E-2,1.3178617E-1,-1.24423675E-1,1.3714793E-1,-1.22342885E-1,1.5363951E-1,9.579085E-2,-6.565749E-2,8.372282E-2,-6.331027E-2,-3.0360753E-2,1.5428892E-1,-1.2533143E-1,-6.921734E-2,-8.372976E-2,2.3857001E-2,-8.529486E-2,1.05593E-1,-1.07515514E-1,3.949183E-2,-1.17542386E-1,7.6095484E-2,8.331796E-2,-1.3497916E-2,-1.1233576E-1,-3.6815676E-4,4.110106E-2,-1.1428871E-1,7.732409E-2,1.9493626E-2,-9.027098E-2,8.331644E-2,-7.286012E-2,3.2536276E-2,9.747287E-2,-4.943927E-3,-5.4906745E-2,4.9497083E-2,3.035356E-2,-1.3229634E-1,1.5570469E-1,-8.671914E-2,-7.328912E-2,2.4830437E-1,-1.2887846E-1,-8.503033E-2],"split_indices":[637,572,2359,784,1060,503,640,2359,2159,256,2359,55,1431,1793,765,595,2097,2359,721,927,736,496,2184,32,655,1287,692,692,396,158,48,2361,391,0,0,32,1041,14,211,2373,92,2354,930,620,2357,464,500,834,680,798,235,1887,626,2364,219,532,488,1430,691,515,256,680,930,0,0,0,0,0,0,0,0,0,0,0,0,0,0,0,0,0,0,0,0,0,0,0,0,0,0,0,0,0,0,0,0,0,0,0,0,0,0,0,0,0,0,0,0,0,0,0,0,0,0,0,0,0,0,0,0,0,0,0,0],"split_type":[0,0,0,0,0,0,0,0,0,0,0,0,0,0,0,0,0,0,0,0,0,0,0,0,0,0,0,0,0,0,0,0,0,0,0,0,0,0,0,0,0,0,0,0,0,0,0,0,0,0,0,0,0,0,0,0,0,0,0,0,0,0,0,0,0,0,0,0,0,0,0,0,0,0,0,0,0,0,0,0,0,0,0,0,0,0,0,0,0,0,0,0,0,0,0,0,0,0,0,0,0,0,0,0,0,0,0,0,0,0,0,0,0,0,0,0,0,0,0,0,0,0,0],"sum_hessian":[1.7793048E5,3.82261E4,1.3970439E5,2.9385516E4,8.840585E3,1.1834686E5,2.1357523E4,3.3237805E2,2.9053137E4,2.4163962E3,6.424189E3,2.2617658E4,9.57292E4,1.6325869E4,5.031655E3,3.197296E2,1.2648433E1,4.2333384E3,2.4819799E4,2.1631455E3,2.5325064E2,5.427898E3,9.9629095E2,9.879968E3,1.273769E4,1.0036538E4,8.5692664E4,1.4046618E4,2.2792512E3,1.1748291E2,4.914172E3,3.152796E2,4.4500027E0,1.0131209E0,1.1635312E1,1.959653E3,2.2736855E3,8.655742E1,2.4733242E4,2.1426516E3,2.0494001E1,1.0621177E2,1.4703886E2,1.4533047E3,3.974593E3,1.4266138E1,9.8202484E2,2.84187E3,7.0380977E3,1.1258511E4,1.4791807E3,5.7620195E3,4.2745186E3,6.8695894E3,7.882307E4,9.360621E3,4.685997E3,1.4034138E3,8.7583734E2,3.9762863E1,7.772005E1,2.0253103E1,4.8939185E3,3.1254547E2,2.7341285E0,3.2002144E0,1.2497882E0,3.5262878E2,1.6070242E3,7.6246924E0,2.2660608E3,6.1118187E1,2.543923E1,2.465118E4,8.206136E1,2.1347798E3,7.8718114E0,1.4995611E0,1.899444E1,1.8040894E1,8.8170876E1,1.4306093E2,3.9779365E0,4.371729E2,1.0161318E3,3.8911904E3,8.3402504E1,4.1167984E0,1.014934E1,8.611732E2,1.2085159E2,5.720918E2,2.2697783E3,6.854267E3,1.8383058E2,9.227375E2,1.0335772E4,1.4196068E3,5.95738E1,3.1951904E3,2.5668289E3,3.2969219E3,9.7759656E2,3.9901816E3,2.8794077E3,6.590791E4,1.2915166E4,9.137779E3,2.2284183E2,1.8725087E3,2.8134885E3,1.0734375E3,3.2997635E2,6.6488025E2,2.1095708E2,2.5026364E0,3.7260227E1,6.736576E1,1.0354283E1,6.2714853E0,1.3981619E1,4.5683027E3,3.256159E2],"tree_param":{"num_deleted":"0","num_feature":"2381","num_nodes":"123","size_leaf_vector":"1"}},{"base_weights":[-1.2930297E-2,-8.68733E-1,2.1039863E-1,-1.1104276E0,-9.415603E-2,3.395795E-1,-6.954199E-1,7.3447347E-1,-1.1327653E0,-1.0717003E0,2.5609666E-1,-1.8860377E-1,4.6360365E-1,-4.143709E-1,-9.786046E-1,8.041964E-1,-1.0411874E0,-7.3631966E-1,-1.2022198E0,-1.1699102E0,-2.590141E-1,4.9272275E-1,-1.109076E0,5.4911023E-1,-3.9738426E-1,5.8881193E-1,-9.264232E-2,-1.1003776E0,-1.7686042E-1,-1.0627546E0,-3.2348764E-1,8.35347E-1,-6.3918203E-1,-1.1724577E-1,2.551308E-2,-2.4477234E-1,-1.1834031E0,7.8507566E-1,-1.2098196E0,-1.1927407E0,1.0260215E0,8.231238E-1,-1.0926341E0,-1.6870168E-1,7.228163E-1,-2.8516334E-1,-1.1982443E0,7.449506E-1,-7.0126855E-1,-5.8925533E-1,3.4287924E-1,6.247007E-1,-3.0724376E-1,-3.3893004E-1,4.2541468E-1,-1.1574093E0,2.4446714E-1,1.0483314E-1,-7.4385804E-1,6.759601E-1,-1.0837579E0,-8.1710595E-1,7.7681756E-1,8.8229336E-2,-5.222343E-3,7.2991036E-2,-1.11579135E-1,8.208669E-2,-4.9209446E-2,-1.2066897E-1,4.7202376E-3,-4.9084093E-2,1.3450758E-1,-1.21695854E-1,7.12201E-2,-1.205377E-1,1.737822E-1,-3.3677598E-3,1.3705352E-1,-1.2052381E-1,1.2131672E-1,-1.1790734E-1,1.3314717E-1,8.648887E-2,-6.3004754E-2,7.875868E-2,5.774679E-3,-1.0408354E-1,7.5196795E-2,-1.2048852E-1,6.107969E-2,8.1890106E-2,-1.08666085E-1,-1.080484E-1,4.0065806E-2,1.1442032E-3,-8.042803E-2,5.0921977E-2,-1.2264433E-1,-4.529956E-2,6.51375E-2,4.7211163E-2,-7.862514E-2,-1.0774414E-2,-8.6931124E-2,6.764847E-2,8.052312E-4,-1.2037195E-1,1.7455769E-3,-7.3060304E-2,1.0750246E-1,-4.9585294E-2,3.361518E-2,-8.4592275E-2,5.2329797E-2,1.6246645E-1,-1.3207512E-1,-1.1064631E-1,5.3183895E-2,-1.126227E-1,1.9567663E-2,9.843525E-2,-1.1680833E-1],"categories":[],"categories_nodes":[],"categories_segments":[],"categories_sizes":[],"default_left":[0,0,0,0,0,0,0,0,0,0,0,0,0,0,0,0,0,0,0,0,0,0,0,0,0,0,0,0,0,0,0,0,0,0,0,0,0,0,0,0,0,0,0,0,0,0,0,0,0,0,0,0,0,0,0,0,0,0,0,0,0,0,0,0,0,0,0,0,0,0,0,0,0,0,0,0,0,0,0,0,0,0,0,0,0,0,0,0,0,0,0,0,0,0,0,0,0,0,0,0,0,0,0,0,0,0,0,0,0,0,0,0,0,0,0,0,0,0,0,0,0,0,0],"id":6,"left_children":[1,3,5,7,9,11,13,15,17,19,21,23,25,27,29,31,33,35,37,39,41,43,45,47,49,51,53,55,57,59,61,63,65,-1,-1,67,69,71,73,75,77,79,81,83,85,87,89,91,93,95,97,99,101,103,105,107,109,111,113,115,117,119,121,-1,-1,-1,-1,-1,-1,-1,-1,-1,-1,-1,-1,-1,-1,-1,-1,-1,-1,-1,-1,-1,-1,-1,-1,-1,-1,-1,-1,-1,-1,-1,-1,-1,-1,-1,-1,-1,-1,-1,-1,-1,-1,-1,-1,-1,-1,-1,-1,-1,-1,-1,-1,-1,-1,-1,-1,-1,-1,-1,-1],"loss_changes":[3.3401688E4,6.770881E3,1.621791E4,1.1368477E3,2.945717E3,7.945994E3,1.3763828E3,4.1739395E1,7.490742E2,1.8082983E2,2.0467222E3,3.5529668E3,6.841574E3,1.4147001E3,4.7463574E2,1.4852539E1,2.4973993E0,8.9258594E2,3.5094922E2,1.02718994E2,2.2278555E2,8.218208E2,6.842566E1,1.24658E3,2.5538816E3,2.5787598E3,2.3031245E3,1.7156104E2,1.0305466E3,2.79542E2,5.3408624E2,1.3053406E1,5.574062E0,0E0,0E0,5.10776E2,6.1021973E1,6.417469E1,3.1765234E2,7.6309814E1,7.8475113E0,8.6590355E1,3.0772736E1,6.654048E2,1.7251587E2,7.345166E1,1.0879028E1,5.968589E2,2.885875E2,1.8443193E3,9.6686646E2,2.2165488E3,1.1533597E3,1.5000311E3,6.0948193E2,1.16588135E2,7.5028366E1,5.992051E2,2.7741382E2,1.7592944E2,2.773213E2,2.1263925E2,1.2412976E2,0E0,0E0,0E0,0E0,0E0,0E0,0E0,0E0,0E0,0E0,0E0,0E0,0E0,0E0,0E0,0E0,0E0,0E0,0E0,0E0,0E0,0E0,0E0,0E0,0E0,0E0,0E0,0E0,0E0,0E0,0E0,0E0,0E0,0E0,0E0,0E0,0E0,0E0,0E0,0E0,0E0,0E0,0E0,0E0,0E0,0E0,0E0,0E0,0E0,0E0,0E0,0E0,0E0,0E0,0E0,0E0,0E0,0E0,0E0,0E0],"parents":[2147483647,0,0,1,1,2,2,3,3,4,4,5,5,6,6,7,7,8,8,9,9,10,10,11,11,12,12,13,13,14,14,15,15,16,16,17,17,18,18,19,19,20,20,21,21,22,22,23,23,24,24,25,25,26,26,27,27,28,28,29,29,30,30,31,31,32,32,35,35,36,36,37,37,38,38,39,39,40,40,41,41,42,42,43,43,44,44,45,45,46,46,47,47,48,48,49,49,50,50,51,51,52,52,53,53,54,54,55,55,56,56,57,57,58,58,59,59,60,60,61,61,62,62],"right_children":[2,4,6,8,10,12,14,16,18,20,22,24,26,28,30,32,34,36,38,40,42,44,46,48,50,52,54,56,58,60,62,64,66,-1,-1,68,70,72,74,76,78,80,82,84,86,88,90,92,94,96,98,100,102,104,106,108,110,112,114,116,118,120,122,-1,-1,-1,-1,-1,-1,-1,-1,-1,-1,-1,-1,-1,-1,-1,-1,-1,-1,-1,-1,-1,-1,-1,-1,-1,-1,-1,-1,-1,-1,-1,-1,-1,-1,-1,-1,-1,-1,-1,-1,-1,-1,-1,-1,-1,-1,-1,-1,-1,-1,-1,-1,-1,-1,-1,-1,-1,-1,-1,-1],"split_conditions":[0E0,3.3776013E-3,5.992E3,-1.1387677E1,1E0,1.0498988E-3,1E1,6.4E1,0E0,5.9424993E-2,3.296E3,7.44E2,3.818469E-3,1.2069873E-3,1E0,2.1723142E-2,8.4E-3,3.296E3,-4.096E3,1E0,1.024E3,2.0054409E-3,0E0,0E0,2E0,6E0,2E0,1E0,2.63876E6,0E0,2E1,7.033414E-5,2.0491802E-3,-1.1724577E-1,2.551308E-2,3.3654321E-3,2.586207E-3,4E0,8.04228E-3,2E0,3.7393742E-3,3.256E4,1E0,1.6E1,5.5377044E-2,2.4299072E-3,4.8314603E-3,1E0,-1.8312207E-1,3.3654321E-3,3E1,0E0,2.4975307E-4,2.744529E-2,9.469697E-3,6.3256137E-3,1.0264599E-3,3.6864E5,3.9492594E-3,5.527108E-3,1E0,3E0,2.383872E6,8.8229336E-2,-5.222343E-3,7.2991036E-2,-1.11579135E-1,8.208669E-2,-4.9209446E-2,-1.2066897E-1,4.7202376E-3,-4.9084093E-2,1.3450758E-1,-1.21695854E-1,7.12201E-2,-1.205377E-1,1.737822E-1,-3.3677598E-3,1.3705352E-1,-1.2052381E-1,1.2131672E-1,-1.1790734E-1,1.3314717E-1,8.648887E-2,-6.3004754E-2,7.875868E-2,5.774679E-3,-1.0408354E-1,7.5196795E-2,-1.2048852E-1,6.107969E-2,8.1890106E-2,-1.08666085E-1,-1.080484E-1,4.0065806E-2,1.1442032E-3,-8.042803E-2,5.0921977E-2,-1.2264433E-1,-4.529956E-2,6.51375E-2,4.7211163E-2,-7.862514E-2,-1.0774414E-2,-8.6931124E-2,6.764847E-2,8.052312E-4,-1.2037195E-1,1.7455769E-3,-7.3060304E-2,1.0750246E-1,-4.9585294E-2,3.361518E-2,-8.4592275E-2,5.2329797E-2,1.6246645E-1,-1.3207512E-1,-1.1064631E-1,5.3183895E-2,-1.126227E-1,1.9567663E-2,9.843525E-2,-1.1680833E-1],"split_indices":[637,572,2359,784,1060,55,679,2359,2159,256,2359,2355,95,126,930,541,565,2359,721,927,736,511,951,655,691,683,691,930,2360,815,620,319,564,0,0,32,308,688,211,1973,56,2354,930,620,504,176,142,1476,775,32,2363,2084,387,588,546,526,504,616,148,516,1059,691,2362,0,0,0,0,0,0,0,0,0,0,0,0,0,0,0,0,0,0,0,0,0,0,0,0,0,0,0,0,0,0,0,0,0,0,0,0,0,0,0,0,0,0,0,0,0,0,0,0,0,0,0,0,0,0,0,0,0,0,0,0],"split_type":[0,0,0,0,0,0,0,0,0,0,0,0,0,0,0,0,0,0,0,0,0,0,0,0,0,0,0,0,0,0,0,0,0,0,0,0,0,0,0,0,0,0,0,0,0,0,0,0,0,0,0,0,0,0,0,0,0,0,0,0,0,0,0,0,0,0,0,0,0,0,0,0,0,0,0,0,0,0,0,0,0,0,0,0,0,0,0,0,0,0,0,0,0,0,0,0,0,0,0,0,0,0,0,0,0,0,0,0,0,0,0,0,0,0,0,0,0,0,0,0,0,0,0],"sum_hessian":[1.7476116E5,3.616665E4,1.385945E5,2.7564992E4,8.601657E3,1.2129673E5,1.7297781E4,3.29377E2,2.7235615E4,2.2684434E3,6.333214E3,2.3065758E4,9.823097E4,8.682864E3,8.614917E3,3.174588E2,1.1918204E1,4.0619084E3,2.3173707E4,2.023475E3,2.4496852E2,5.398183E3,9.3503076E2,5.087552E3,1.7978207E4,8.018227E4,1.8048697E4,2.232128E3,6.4507363E3,7.633738E3,9.811787E2,3.1116458E2,6.2942123E0,1.0909057E1,1.0091473E0,1.935483E3,2.1264255E3,8.789193E1,2.3085816E4,2.0031061E3,2.0368843E1,1.0660071E2,1.3836781E2,1.393296E3,4.0048872E3,9.172184E1,8.433089E2,4.3989683E3,6.885835E2,1.4277725E4,3.7004817E3,7.709477E4,3.0874958E3,1.2233268E4,5.81543E3,2.1414534E3,9.0674736E1,4.310183E3,2.1405535E3,9.074084E1,7.542997E3,6.774975E2,3.0368118E2,2.9553857E2,1.5626012E1,1.4880947E0,4.8061175E0,3.6414948E2,1.5713335E3,2.0869536E3,3.9471764E1,2.6846884E1,6.1045044E1,2.300075E4,8.506487E1,1.9950922E3,8.01397E0,5.2187104E0,1.5150132E1,1.6855612E1,8.9745094E1,1.3409967E2,4.268147E0,4.297092E2,9.6358685E2,3.6493008E3,3.5558646E2,5.3058743E1,3.8663097E1,8.4055725E2,2.7516582E0,4.228786E3,1.7018237E2,5.123006E2,1.7628294E2,3.763867E3,1.0513857E4,3.34645E3,3.5403183E2,1.8617142E3,7.523306E4,1.1752896E3,1.9122062E3,8.520501E3,3.7127666E3,3.6307078E3,2.1847224E3,2.0602202E3,8.12332E1,4.1764168E1,4.891057E1,1.1980236E3,3.1121597E3,1.9812996E3,1.5925392E2,6.1639957E1,2.910088E1,7.4387695E3,1.0422751E2,5.18982E2,1.5851547E2,2.7484692E2,2.8834267E1],"tree_param":{"num_deleted":"0","num_feature":"2381","num_nodes":"123","size_leaf_vector":"1"}},{"base_weights":[-1.2913293E-2,-8.314192E-1,1.904092E-1,-1.0827563E0,-1.1948477E-1,3.1994656E-1,-5.7250804E-1,-4.8583388E-1,-1.1426433E0,-1.004924E0,1.9138286E-1,-1.3584971E-1,4.423538E-1,-4.1159013E-1,-1.1308429E0,7.163465E-2,-1.0980898E0,7.326504E-1,-1.1538776E0,-1.0920386E0,4.2998698E-1,4.1936782E-1,-1.0824676E0,3.2125828E-1,-3.4112927E-1,6.102369E-1,1.8588682E-1,-5.322364E-1,3.011515E-1,3.6745793E-1,-1.1711698E0,-2.821488E-1,9.907747E-1,-1.1386887E0,3.692382E-1,7.877474E-1,-9.0866274E-1,-1.1604424E0,1.1104193E0,1.5674653E0,-1.1087893E0,-1.1230352E0,9.456725E-1,-1.9293718E-1,6.550338E-1,-3.197947E-1,-1.1655535E0,-2.989687E-3,8.22588E-1,-6.6268027E-1,-3.5577696E-2,-2.9252535E-1,6.944363E-1,2.7074492E-1,-7.506222E-1,-7.729201E-1,-7.913596E-2,-7.014094E-1,5.017635E-1,-1.148295E0,1.0887405E0,1.3545814E0,-1.1842672E0,1.20315395E-1,-4.5596298E-2,1.22496806E-1,-9.987406E-3,-1.1783534E-1,-5.109523E-2,2.4159479E-1,-1.06420934E-1,9.568647E-2,2.518857E-2,-1.3701098E-1,2.8183008E-2,1.1745339E-1,-1.1661488E-1,-1.1662539E-1,1.5422297E-1,2.2928631E-1,-9.298656E-2,-1.1290697E-1,9.586235E-2,-1.18042946E-1,3.0633E-2,-9.006991E-2,1.0013318E-1,7.6186575E-2,-5.7567757E-2,6.835749E-2,-6.479161E-2,4.5133166E-2,-1.2321589E-1,8.2834266E-2,-1.1718239E-1,4.5919236E-2,-6.523283E-2,9.081184E-2,-8.222506E-3,-7.860092E-2,6.9043E-4,-5.084405E-2,2.3106623E-2,3.4297284E-2,-9.581437E-2,-3.2374796E-2,7.2073326E-2,3.3953983E-2,-5.7434864E-2,-1.0014304E-1,3.1785607E-2,-8.061426E-2,1.0600678E-1,5.915003E-2,-4.267445E-2,-9.488409E-2,9.9338315E-2,7.601509E-2,-8.163754E-3,-1.2791727E-1,7.845555E-3,-1.9609619E-2,1.5920438E-1,2.149709E-1,-9.6165E-2,-1.2149254E-1,-7.717315E-2],"categories":[],"categories_nodes":[],"categories_segments":[],"categories_sizes":[],"default_left":[0,0,0,0,0,0,0,0,0,0,0,0,0,0,0,0,0,0,0,0,0,0,0,0,0,0,0,0,0,0,0,0,0,0,0,0,0,0,0,0,0,0,0,0,0,0,0,0,0,0,0,0,0,0,0,0,0,0,0,0,0,0,0,0,0,0,0,0,0,0,0,0,0,0,0,0,0,0,0,0,0,0,0,0,0,0,0,0,0,0,0,0,0,0,0,0,0,0,0,0,0,0,0,0,0,0,0,0,0,0,0,0,0,0,0,0,0,0,0,0,0,0,0,0,0,0,0],"id":7,"left_children":[1,3,5,7,9,11,13,15,17,19,21,23,25,27,29,31,33,35,37,39,41,43,45,47,49,51,53,55,57,59,61,63,65,67,69,71,73,75,77,79,81,83,85,87,89,91,93,95,97,99,101,103,105,107,109,111,113,115,117,119,121,123,125,-1,-1,-1,-1,-1,-1,-1,-1,-1,-1,-1,-1,-1,-1,-1,-1,-1,-1,-1,-1,-1,-1,-1,-1,-1,-1,-1,-1,-1,-1,-1,-1,-1,-1,-1,-1,-1,-1,-1,-1,-1,-1,-1,-1,-1,-1,-1,-1,-1,-1,-1,-1,-1,-1,-1,-1,-1,-1,-1,-1,-1,-1,-1,-1],"loss_changes":[2.8567627E4,6.1116973E3,1.3589059E4,9.0187305E2,2.4536086E3,6.5582305E3,1.792727E3,7.862886E2,4.8417383E2,2.900144E2,1.9166198E3,2.3352278E3,3.9895273E3,1.3325496E3,2.7019678E2,3.9264603E2,6.58219E1,1.3125633E1,3.402871E2,9.903345E1,1.0781384E2,8.0778015E2,6.311328E1,1.2537429E3,1.6872976E3,4.256992E3,2.9136077E3,1.4451213E3,4.5162885E2,1.300173E2,1.454375E2,2.2568207E2,8.583682E1,2.600354E1,9.1506256E1,1.1839806E1,3.0896916E0,3.0436914E2,6.7114204E1,2.7646393E1,9.210547E1,3.125E0,1.1241348E1,5.691736E2,1.5074658E2,7.077061E1,1.2261353E1,1.406182E3,2.3450073E2,6.910027E2,1.1105536E3,2.0215413E3,1.3717656E3,1.9545159E3,8.1662256E2,5.278887E2,1.0722324E3,1.5800044E2,2.8198593E2,6.2756233E0,5.2250626E1,4.423609E1,5.3776855E1,0E0,0E0,0E0,0E0,0E0,0E0,0E0,0E0,0E0,0E0,0E0,0E0,0E0,0E0,0E0,0E0,0E0,0E0,0E0,0E0,0E0,0E0,0E0,0E0,0E0,0E0,0E0,0E0,0E0,0E0,0E0,0E0,0E0,0E0,0E0,0E0,0E0,0E0,0E0,0E0,0E0,0E0,0E0,0E0,0E0,0E0,0E0,0E0,0E0,0E0,0E0,0E0,0E0,0E0,0E0,0E0,0E0,0E0,0E0,0E0,0E0,0E0,0E0,0E0],"parents":[2147483647,0,0,1,1,2,2,3,3,4,4,5,5,6,6,7,7,8,8,9,9,10,10,11,11,12,12,13,13,14,14,15,15,16,16,17,17,18,18,19,19,20,20,21,21,22,22,23,23,24,24,25,25,26,26,27,27,28,28,29,29,30,30,31,31,32,32,33,33,34,34,35,35,36,36,37,37,38,38,39,39,40,40,41,41,42,42,43,43,44,44,45,45,46,46,47,47,48,48,49,49,50,50,51,51,52,52,53,53,54,54,55,55,56,56,57,57,58,58,59,59,60,60,61,61,62,62],"right_children":[2,4,6,8,10,12,14,16,18,20,22,24,26,28,30,32,34,36,38,40,42,44,46,48,50,52,54,56,58,60,62,64,66,68,70,72,74,76,78,80,82,84,86,88,90,92,94,96,98,100,102,104,106,108,110,112,114,116,118,120,122,124,126,-1,-1,-1,-1,-1,-1,-1,-1,-1,-1,-1,-1,-1,-1,-1,-1,-1,-1,-1,-1,-1,-1,-1,-1,-1,-1,-1,-1,-1,-1,-1,-1,-1,-1,-1,-1,-1,-1,-1,-1,-1,-1,-1,-1,-1,-1,-1,-1,-1,-1,-1,-1,-1,-1,-1,-1,-1,-1,-1,-1,-1,-1,-1,-1],"split_conditions":[0E0,3.1170303E-3,5.288E3,0E0,1E0,8.4198633E-4,2E0,3.296E3,-1E0,8.263221E-3,3.296E3,1.37369195E-2,3.4113708E-3,1E0,-4.102959E0,9.328358E-4,1.8825302E-2,2.8147927E-2,4.760271E-3,0E0,1.069019E-2,3.6524837E-3,0E0,1.2417905E-3,5.9103025E-3,1E0,1E0,3E0,6.4430013E-4,1.3976491E-3,2.2921845E-4,-5.1248E4,1.2394831E-3,5E0,3.0748346E0,1.0165788E-2,1.7578125E-3,-6.273091E0,1.2863729E-3,6.144663E-4,1E0,1.7902553E-2,-3.75975E5,1.7E1,3.72E2,2.0856E5,8E0,2.0748088E-3,1.8299624E-2,2E0,6.644211E-3,1.1E1,0E0,6.157536E-2,2E0,8.5857436E-2,1E0,-1.3284E4,7.486979E-3,1.9081364E-3,1.9749106E-4,1.224704E6,1E0,1.20315395E-1,-4.5596298E-2,1.22496806E-1,-9.987406E-3,-1.1783534E-1,-5.109523E-2,2.4159479E-1,-1.06420934E-1,9.568647E-2,2.518857E-2,-1.3701098E-1,2.8183008E-2,1.1745339E-1,-1.1661488E-1,-1.1662539E-1,1.5422297E-1,2.2928631E-1,-9.298656E-2,-1.1290697E-1,9.586235E-2,-1.18042946E-1,3.0633E-2,-9.006991E-2,1.0013318E-1,7.6186575E-2,-5.7567757E-2,6.835749E-2,-6.479161E-2,4.5133166E-2,-1.2321589E-1,8.2834266E-2,-1.1718239E-1,4.5919236E-2,-6.523283E-2,9.081184E-2,-8.222506E-3,-7.860092E-2,6.9043E-4,-5.084405E-2,2.3106623E-2,3.4297284E-2,-9.581437E-2,-3.2374796E-2,7.2073326E-2,3.3953983E-2,-5.7434864E-2,-1.0014304E-1,3.1785607E-2,-8.061426E-2,1.0600678E-1,5.915003E-2,-4.267445E-2,-9.488409E-2,9.9338315E-2,7.601509E-2,-8.163754E-3,-1.2791727E-1,7.845555E-3,-1.9609619E-2,1.5920438E-1,2.149709E-1,-9.6165E-2,-1.2149254E-1,-7.717315E-2],"split_indices":[637,572,2359,1799,1060,496,640,2359,906,71,2359,255,21,1793,765,177,561,595,274,1495,117,496,951,106,533,692,1733,692,511,158,32,810,441,614,786,581,23,760,269,134,927,602,834,620,2357,2364,2361,84,578,691,604,679,1526,509,692,594,689,834,4,126,429,617,930,0,0,0,0,0,0,0,0,0,0,0,0,0,0,0,0,0,0,0,0,0,0,0,0,0,0,0,0,0,0,0,0,0,0,0,0,0,0,0,0,0,0,0,0,0,0,0,0,0,0,0,0,0,0,0,0,0,0,0,0,0,0,0,0],"split_type":[0,0,0,0,0,0,0,0,0,0,0,0,0,0,0,0,0,0,0,0,0,0,0,0,0,0,0,0,0,0,0,0,0,0,0,0,0,0,0,0,0,0,0,0,0,0,0,0,0,0,0,0,0,0,0,0,0,0,0,0,0,0,0,0,0,0,0,0,0,0,0,0,0,0,0,0,0,0,0,0,0,0,0,0,0,0,0,0,0,0,0,0,0,0,0,0,0,0,0,0,0,0,0,0,0,0,0,0,0,0,0,0,0,0,0,0,0,0,0,0,0,0,0,0,0,0,0],"sum_hessian":[1.7165719E5,3.415558E4,1.3750161E5,2.5243309E4,8.912268E3,1.17544125E5,1.995749E4,2.3024841E3,2.2940826E4,2.3153267E3,6.5969404E3,2.4884385E4,9.2659734E4,1.5493764E4,4.463727E3,1.205626E3,1.0968583E3,1.3622925E2,2.2804596E4,2.183032E3,1.3229463E2,5.596066E3,1.0008745E3,7.711708E3,1.7172678E4,5.6000492E4,3.6659246E4,1.3251009E4,2.2427546E3,1.1677988E2,4.3469473E3,8.7104694E2,3.3457904E2,1.0675448E3,2.9313467E1,1.3230788E2,3.9213736E0,2.2739156E4,6.543898E1,1.3084193E1,2.1699478E3,3.2684696E1,9.960994E1,1.5552952E3,4.0407708E3,9.880056E1,9.02074E2,4.6835166E3,3.0281917E3,8.366703E3,8.805974E3,4.7772886E3,5.1223203E4,3.361414E4,3.0451035E3,8.653583E3,4.5974263E3,3.7353128E2,1.8692233E3,3.7462196E1,7.931768E1,2.1896692E1,4.325051E3,9.063314E1,7.804138E2,2.7533386E2,5.9245197E1,1.00327374E3,6.427104E1,1.1791656E1,1.752181E1,9.9971375E1,3.23365E1,2.71726E0,1.2041137E0,5.493785E1,2.2684219E4,1.0161696E1,5.5277287E1,1.0202543E1,2.88165E0,2.1493179E3,2.062993E1,3.1590385E1,1.0943118E0,2.4706094E0,9.713933E1,4.4476703E2,1.1105282E3,3.9546204E3,8.61505E1,5.381861E1,4.498195E1,2.416945E0,8.99657E2,2.736232E3,1.9472847E3,2.7666604E3,2.6153116E2,7.0652085E3,1.3014951E3,3.1748425E3,5.631131E3,2.444188E3,2.3331003E3,1.2893643E3,4.993384E4,3.1084318E4,2.529823E3,2.466253E3,5.788507E2,8.500081E3,1.5350197E2,1.5692302E3,3.0281958E3,3.2632898E2,4.7202316E1,1.2952544E3,5.7396893E2,3.381217E1,3.6500292E0,2.2497154E1,5.6820522E1,1.6354374E1,5.5423183E0,4.0240522E3,3.0099835E2],"tree_param":{"num_deleted":"0","num_feature":"2381","num_nodes":"127","size_leaf_vector":"1"}},{"base_weights":[-1.279748E-2,-7.96824E-1,1.7269309E-1,-1.0479517E0,-1.12310655E-1,2.894642E-1,-5.349879E-1,-5.982852E-1,-1.1314764E0,-9.698399E-1,1.7471173E-1,3.7727457E-1,-2.8034422E-1,-3.8083455E-1,-1.0931026E0,-1.1553633E-1,-1.1124876E0,6.776609E-1,-1.1426457E0,-1.1054438E0,-3.5189193E-2,3.8094014E-1,-1.0469744E0,4.2353487E-1,-4.9669757E-1,1.064386E-2,-8.921441E-1,1.1986404E-2,-5.8922666E-1,3.2945803E-1,-1.1340413E0,-3.284511E-1,9.777799E-1,-1.1365138E0,8.538853E-2,5.2894706E-1,1.3660878E0,-1.1508085E0,7.8635836E-1,-1.1267414E0,8.612204E-1,8.346161E-1,-1.020077E0,-2.6451153E-1,5.671636E-1,-1.1441808E0,-3.8276297E-1,-4.4446316E-1,4.5813242E-1,3.158341E-1,-8.908623E-1,-3.8181937E-1,3.5156572E-1,-3.4902406E-1,-1.0785778E0,2.278063E-1,-7.9237896E-1,-7.6830786E-1,-2.3091817E-1,-1.0594969E0,9.7688085E-1,1.1550837E0,-1.1474446E0,2.803875E-2,-7.921659E-2,7.4838884E-2,1.8808362E-1,-1.17068626E-1,-5.774321E-2,1.86846E-1,-1.0744027E-1,-8.1666894E-2,6.0186382E-2,1.6207187E-1,3.720628E-2,7.8958385E-2,-1.158508E-1,-1.3263544E-1,2.456504E-1,7.920624E-2,-1.14660256E-1,-4.8986267E-2,1.1087521E-1,1.08930744E-1,-1.1192828E-1,-1.1101593E-1,1.2398876E-1,6.823974E-2,-7.397329E-2,6.383506E-2,-1.1307561E-2,-1.1513074E-1,1.7940162E-1,5.654462E-2,-9.454713E-2,-6.940813E-3,-9.656421E-2,6.1946947E-2,2.958686E-2,5.8211964E-2,-1.04773186E-1,-1.2034283E-1,-3.8490247E-2,2.3131857E-2,-6.6926636E-2,-5.8328893E-2,4.68415E-2,-6.8484455E-2,2.0175701E-2,-1.1687032E-1,-2.579011E-2,-6.555536E-2,5.3284984E-2,-8.77512E-2,7.0582E-2,-9.617E-2,-3.895503E-2,-5.824412E-2,3.3263177E-2,-1.1712418E-1,6.891837E-2,-1.7794695E-2,1.4243303E-1,1.905312E-1,-6.37465E-2,-1.1800969E-1,-7.230844E-2],"categories":[],"categories_nodes":[],"categories_segments":[],"categories_sizes":[],"default_left":[0,0,0,0,0,0,0,0,0,0,0,0,0,0,0,0,0,0,0,0,0,0,0,0,0,0,0,0,0,0,0,0,0,0,0,0,0,0,0,0,0,0,0,0,0,0,0,0,0,0,0,0,0,0,0,0,0,0,0,0,0,0,0,0,0,0,0,0,0,0,0,0,0,0,0,0,0,0,0,0,0,0,0,0,0,0,0,0,0,0,0,0,0,0,0,0,0,0,0,0,0,0,0,0,0,0,0,0,0,0,0,0,0,0,0,0,0,0,0,0,0,0,0,0,0,0,0],"id":8,"left_children":[1,3,5,7,9,11,13,15,17,19,21,23,25,27,29,31,33,35,37,39,41,43,45,47,49,51,53,55,57,59,61,63,65,67,69,71,73,75,77,79,81,83,85,87,89,91,93,95,97,99,101,103,105,107,109,111,113,115,117,119,121,123,125,-1,-1,-1,-1,-1,-1,-1,-1,-1,-1,-1,-1,-1,-1,-1,-1,-1,-1,-1,-1,-1,-1,-1,-1,-1,-1,-1,-1,-1,-1,-1,-1,-1,-1,-1,-1,-1,-1,-1,-1,-1,-1,-1,-1,-1,-1,-1,-1,-1,-1,-1,-1,-1,-1,-1,-1,-1,-1,-1,-1,-1,-1,-1,-1],"loss_changes":[2.448739E4,5.537627E3,1.1252379E4,8.8450195E2,2.128616E3,5.848203E3,1.6588643E3,9.168583E2,4.0238867E2,2.7483325E2,1.6329867E3,4.0947246E3,2.77852E3,1.2372166E3,2.4342725E2,4.441075E2,5.1575684E1,1.1827015E1,3.1194336E2,8.0298096E1,2.3713435E2,6.66621E2,6.000415E1,2.8886406E3,1.6309456E3,1.4154244E3,5.0899902E2,9.0977185E2,6.334607E2,1.0671397E2,1.2580127E2,4.5094016E2,6.3016876E1,3.2825928E1,7.666304E1,1.0542376E1,4.7487144E0,2.9479688E2,2.9905746E2,7.232837E1,7.518463E0,7.4380684E1,2.780194E1,5.59498E2,2.0846753E2,1.9154419E1,6.510364E1,7.2069617E2,2.4213066E3,6.0475726E2,5.417627E2,8.668627E2,6.186718E2,2.381893E2,2.7666064E2,1.1137638E3,1.4202576E2,4.8187744E2,6.5237756E2,8.201908E0,4.1941673E1,3.3644268E1,5.504004E1,0E0,0E0,0E0,0E0,0E0,0E0,0E0,0E0,0E0,0E0,0E0,0E0,0E0,0E0,0E0,0E0,0E0,0E0,0E0,0E0,0E0,0E0,0E0,0E0,0E0,0E0,0E0,0E0,0E0,0E0,0E0,0E0,0E0,0E0,0E0,0E0,0E0,0E0,0E0,0E0,0E0,0E0,0E0,0E0,0E0,0E0,0E0,0E0,0E0,0E0,0E0,0E0,0E0,0E0,0E0,0E0,0E0,0E0,0E0,0E0,0E0,0E0,0E0,0E0],"parents":[2147483647,0,0,1,1,2,2,3,3,4,4,5,5,6,6,7,7,8,8,9,9,10,10,11,11,12,12,13,13,14,14,15,15,16,16,17,17,18,18,19,19,20,20,21,21,22,22,23,23,24,24,25,25,26,26,27,27,28,28,29,29,30,30,31,31,32,32,33,33,34,34,35,35,36,36,37,37,38,38,39,39,40,40,41,41,42,42,43,43,44,44,45,45,46,46,47,47,48,48,49,49,50,50,51,51,52,52,53,53,54,54,55,55,56,56,57,57,58,58,59,59,60,60,61,61,62,62],"right_children":[2,4,6,8,10,12,14,16,18,20,22,24,26,28,30,32,34,36,38,40,42,44,46,48,50,52,54,56,58,60,62,64,66,68,70,72,74,76,78,80,82,84,86,88,90,92,94,96,98,100,102,104,106,108,110,112,114,116,118,120,122,124,126,-1,-1,-1,-1,-1,-1,-1,-1,-1,-1,-1,-1,-1,-1,-1,-1,-1,-1,-1,-1,-1,-1,-1,-1,-1,-1,-1,-1,-1,-1,-1,-1,-1,-1,-1,-1,-1,-1,-1,-1,-1,-1,-1,-1,-1,-1,-1,-1,-1,-1,-1,-1,-1,-1,-1,-1,-1,-1,-1,-1,-1,-1,-1,-1],"split_conditions":[0E0,3.1170303E-3,5.288E3,0E0,1E0,1.4421162E-2,2E0,3.296E3,-1E0,5.9424993E-2,3.296E3,1E0,8.4E3,0E0,-4.102959E0,5.916394E-3,7.715238E-4,2.6782153E-3,8.04228E-3,1E0,1.024E3,2.4055864E-4,2.2687294E-2,0E0,1E0,1.5285326E-3,0E0,5.34236E6,1.7215703E-5,1.4713521E-3,2.2921845E-4,2.8125E-3,1E0,5E0,3.0748346E0,3.911957E-3,3.0226044E-3,-3.584E3,7.0745294E-4,0E0,3.6943895E-3,0E0,1E0,1.6E1,7.0976E5,2.2194602E-3,6.36E3,1.072128E6,3.616898E-3,0E0,5.6E2,7.864085E-3,-7.32672E5,1.5940489E-3,4.8E1,1.6087582E-3,3.9492594E-3,3E0,2.172036E-3,2.4857954E-3,1.9749106E-4,2.006E4,1E0,2.803875E-2,-7.921659E-2,7.4838884E-2,1.8808362E-1,-1.17068626E-1,-5.774321E-2,1.86846E-1,-1.0744027E-1,-8.1666894E-2,6.0186382E-2,1.6207187E-1,3.720628E-2,7.8958385E-2,-1.158508E-1,-1.3263544E-1,2.456504E-1,7.920624E-2,-1.14660256E-1,-4.8986267E-2,1.1087521E-1,1.08930744E-1,-1.1192828E-1,-1.1101593E-1,1.2398876E-1,6.823974E-2,-7.397329E-2,6.383506E-2,-1.1307561E-2,-1.1513074E-1,1.7940162E-1,5.654462E-2,-9.454713E-2,-6.940813E-3,-9.656421E-2,6.1946947E-2,2.958686E-2,5.8211964E-2,-1.04773186E-1,-1.2034283E-1,-3.8490247E-2,2.3131857E-2,-6.6926636E-2,-5.8328893E-2,4.68415E-2,-6.8484455E-2,2.0175701E-2,-1.1687032E-1,-2.579011E-2,-6.555536E-2,5.3284984E-2,-8.77512E-2,7.0582E-2,-9.617E-2,-3.895503E-2,-5.824412E-2,3.3263177E-2,-1.1712418E-1,6.891837E-2,-1.7794695E-2,1.4243303E-1,1.905312E-1,-6.37465E-2,-1.1800969E-1,-7.230844E-2],"split_indices":[637,572,2359,2159,1060,578,640,2359,906,256,2359,1343,2364,1601,765,501,309,43,211,927,736,506,500,1597,2047,89,1689,2360,326,158,32,112,1718,614,786,476,451,721,321,1043,109,655,930,620,2352,275,2359,616,105,1811,2375,515,734,214,835,506,148,692,172,40,429,2354,930,0,0,0,0,0,0,0,0,0,0,0,0,0,0,0,0,0,0,0,0,0,0,0,0,0,0,0,0,0,0,0,0,0,0,0,0,0,0,0,0,0,0,0,0,0,0,0,0,0,0,0,0,0,0,0,0,0,0,0,0,0,0,0,0],"split_type":[0,0,0,0,0,0,0,0,0,0,0,0,0,0,0,0,0,0,0,0,0,0,0,0,0,0,0,0,0,0,0,0,0,0,0,0,0,0,0,0,0,0,0,0,0,0,0,0,0,0,0,0,0,0,0,0,0,0,0,0,0,0,0,0,0,0,0,0,0,0,0,0,0,0,0,0,0,0,0,0,0,0,0,0,0,0,0,0,0,0,0,0,0,0,0,0,0,0,0,0,0,0,0,0,0,0,0,0,0,0,0,0,0,0,0,0,0,0,0,0,0,0,0,0,0,0,0],"sum_hessian":[1.6837784E5,3.2213865E4,1.3616398E5,2.3567217E4,8.646649E3,1.1687893E5,1.928505E4,3.6930938E3,1.9874123E4,2.1677478E3,6.4789014E3,1.0127264E5,1.5606289E4,1.511258E4,4.1724697E3,1.9054365E3,1.7876572E3,1.215803E2,1.9752541E4,1.8929291E3,2.748186E2,5.5437666E3,9.35135E2,9.618213E4,5.0905093E3,1.057671E4,5.0295786E3,5.23864E3,9.87394E3,1.16520164E2,4.0559497E3,1.5954373E3,3.099993E2,1.7525566E3,3.510053E1,1.0143638E2,2.014392E1,1.966971E4,8.283057E1,1.8730721E3,1.9856983E1,1.460165E2,1.2880212E2,1.241231E3,4.3025356E3,8.1512067E2,1.200143E2,3.686319E3,9.249581E4,1.6628687E3,3.4276409E3,4.9166406E3,5.66007E3,1.2860164E3,3.743562E3,4.1309727E3,1.1076676E3,6.582759E3,3.2911812E3,3.6842743E1,7.967742E1,2.3114515E1,4.0328352E3,6.899527E2,9.054845E2,2.4866344E2,6.133587E1,1.6505757E3,1.01981E2,1.3592417E1,2.1508112E1,4.6898203E0,9.674656E1,1.5534199E1,4.6097226E0,7.734032E1,1.9592371E4,3.666087E1,4.6169693E1,1.8790861E1,1.8542812E3,2.9230947E0,1.693389E1,1.2956955E2,1.644693E1,1.2435414E2,4.447991E0,4.1462607E2,8.2660486E2,3.8949868E3,4.075489E2,8.1375507E2,1.3655891E0,4.46949E1,7.53194E1,2.1443313E3,1.5419879E3,4.6378934E4,4.6116875E4,1.3916682E3,2.7120047E2,2.117894E3,1.3097466E3,1.5693463E3,3.3472942E3,6.2841675E2,5.031653E3,7.9875726E2,4.8725912E2,3.3727478E3,3.7081415E2,1.0600576E3,3.070915E3,1.0485022E3,5.9165382E1,4.3567036E3,2.2260552E3,2.0268613E3,1.2643198E3,3.4940193E1,1.9025489E0,2.2418795E1,5.725863E1,1.6250397E1,6.8641195E0,3.7430474E3,2.897878E2],"tree_param":{"num_deleted":"0","num_feature":"2381","num_nodes":"127","size_leaf_vector":"1"}},{"base_weights":[-1.2693871E-2,-7.6462305E-1,1.5634258E-1,-1.016186E0,-1.0569734E-1,2.5074583E-1,-5.761895E-1,-5.642552E-1,-1.1029927E0,-9.3872744E-1,1.594681E-1,-2.81422E-1,3.33133E-1,-3.099925E-1,-8.659944E-1,-1.06300116E-1,-1.0821794E0,-1.1143739E0,6.122673E-1,-1.0752115E0,-3.487798E-2,3.4611604E-1,-1.0141137E0,4.3807837E-1,-4.8574352E-1,4.2581537E-1,-1.2844194E-1,-9.878524E-1,-1.0114963E-1,-2.0270859E-1,-9.477487E-1,4.9527714E-1,-4.7834614E-1,-1.1070061E0,8.2897104E-2,-1.122811E0,6.806463E-1,4.7364783E-1,1.2705067E0,-1.0966005E0,7.92436E-1,7.5901645E-1,-9.7998345E-1,-1.7036483E-1,5.384928E-1,-2.4865901E-1,-1.1040293E0,5.85038E-1,-6.8085396E-1,-6.516059E-1,1.6295412E-1,4.5740432E-1,-3.369445E-1,-3.334296E-1,3.16308E-1,-1.0490209E0,2.3447406E-1,-7.5888366E-1,1.1046358E-1,-9.2554253E-1,4.3204442E-1,-1.0222318E0,-3.802353E-1,-3.2224547E-2,8.239167E-2,-9.289325E-2,2.0419786E-2,-1.1430585E-1,-5.4267615E-2,-1.1197275E-1,1.55578E-1,6.843715E-2,-1.1308291E-1,-1.275436E-1,2.0068693E-1,6.8116486E-2,5.448039E-4,-3.4929737E-2,1.389182E-1,6.928965E-2,-1.1172183E-1,-8.9016475E-2,9.713004E-2,1.0423457E-1,-6.5461E-2,1.13012075E-1,-1.0503173E-1,6.218804E-2,-5.049479E-2,2.4735382E-2,6.601221E-2,4.370599E-2,-1.1756463E-1,8.121886E-2,-1.1110506E-1,6.812277E-2,-8.897122E-2,4.0014475E-3,-8.959859E-2,-8.153569E-2,-1.3548972E-2,6.6020824E-2,-3.8318735E-2,8.2199425E-5,5.0500493E-2,3.4631915E-2,-7.696488E-2,-4.5166183E-2,6.1185043E-2,-5.373306E-2,4.200487E-2,-1.1897743E-2,-1.1195686E-1,-7.8004174E-2,8.4142156E-2,-7.993004E-2,2.141776E-1,-6.823096E-2,2.6512658E-2,-9.9086456E-2,1.6991886E-1,1.274547E-1,-4.237258E-2,-1.04269564E-1,8.932055E-2,-8.394064E-2,9.313677E-2],"categories":[],"categories_nodes":[],"categories_segments":[],"categories_sizes":[],"default_left":[0,0,0,0,0,0,0,0,0,0,0,0,0,0,0,0,0,0,0,0,0,0,0,0,0,0,0,0,0,0,0,0,0,0,0,0,0,0,0,0,0,0,0,0,0,0,0,0,0,0,0,0,0,0,0,0,0,0,0,0,0,0,0,0,0,0,0,0,0,0,0,0,0,0,0,0,0,0,0,0,0,0,0,0,0,0,0,0,0,0,0,0,0,0,0,0,0,0,0,0,0,0,0,0,0,0,0,0,0,0,0,0,0,0,0,0,0,0,0,0,0,0,0,0,0,0,0],"id":9,"left_children":[1,3,5,7,9,11,13,15,17,19,21,23,25,27,29,31,33,35,37,39,41,43,45,47,49,51,53,55,57,59,61,63,65,67,69,71,73,75,77,79,81,83,85,87,89,91,93,95,97,99,101,103,105,107,109,111,113,115,117,119,121,123,125,-1,-1,-1,-1,-1,-1,-1,-1,-1,-1,-1,-1,-1,-1,-1,-1,-1,-1,-1,-1,-1,-1,-1,-1,-1,-1,-1,-1,-1,-1,-1,-1,-1,-1,-1,-1,-1,-1,-1,-1,-1,-1,-1,-1,-1,-1,-1,-1,-1,-1,-1,-1,-1,-1,-1,-1,-1,-1,-1,-1,-1,-1,-1,-1],"loss_changes":[2.1020031E4,5.031375E3,9.337488E3,8.6116016E2,1.8529149E3,5.24425E3,1.188898E3,8.399038E2,3.604004E2,2.4981824E2,1.3942095E3,2.3575737E3,4.431001E3,1.1375452E3,3.9997314E2,4.211711E2,4.8161377E1,2.779922E2,1.0539635E1,7.1161865E1,2.0089104E2,5.4566E2,5.9839294E1,5.8367285E2,1.3438928E3,2.0784736E3,1.5791914E3,1.4175269E2,8.5530994E2,3.7252072E2,2.773037E2,1.9348383E2,3.5773026E2,3.2487183E1,6.4809006E1,2.6478906E2,2.2633669E2,9.95104E0,4.4541397E0,6.497778E1,7.035574E0,5.8972893E1,1.932508E1,3.9551758E2,1.4151465E2,5.969496E1,1.1414307E1,4.454419E2,6.396817E1,8.405093E2,6.91105E2,1.8001094E3,1.0145639E3,1.3253933E3,4.841928E2,1.18140015E2,5.6699608E1,1.7707245E2,5.7029504E2,6.675455E1,3.1237524E2,2.2853809E2,4.6076202E2,0E0,0E0,0E0,0E0,0E0,0E0,0E0,0E0,0E0,0E0,0E0,0E0,0E0,0E0,0E0,0E0,0E0,0E0,0E0,0E0,0E0,0E0,0E0,0E0,0E0,0E0,0E0,0E0,0E0,0E0,0E0,0E0,0E0,0E0,0E0,0E0,0E0,0E0,0E0,0E0,0E0,0E0,0E0,0E0,0E0,0E0,0E0,0E0,0E0,0E0,0E0,0E0,0E0,0E0,0E0,0E0,0E0,0E0,0E0,0E0,0E0,0E0,0E0,0E0],"parents":[2147483647,0,0,1,1,2,2,3,3,4,4,5,5,6,6,7,7,8,8,9,9,10,10,11,11,12,12,13,13,14,14,15,15,16,16,17,17,18,18,19,19,20,20,21,21,22,22,23,23,24,24,25,25,26,26,27,27,28,28,29,29,30,30,31,31,32,32,33,33,34,34,35,35,36,36,37,37,38,38,39,39,40,40,41,41,42,42,43,43,44,44,45,45,46,46,47,47,48,48,49,49,50,50,51,51,52,52,53,53,54,54,55,55,56,56,57,57,58,58,59,59,60,60,61,61,62,62],"right_children":[2,4,6,8,10,12,14,16,18,20,22,24,26,28,30,32,34,36,38,40,42,44,46,48,50,52,54,56,58,60,62,64,66,68,70,72,74,76,78,80,82,84,86,88,90,92,94,96,98,100,102,104,106,108,110,112,114,116,118,120,122,124,126,-1,-1,-1,-1,-1,-1,-1,-1,-1,-1,-1,-1,-1,-1,-1,-1,-1,-1,-1,-1,-1,-1,-1,-1,-1,-1,-1,-1,-1,-1,-1,-1,-1,-1,-1,-1,-1,-1,-1,-1,-1,-1,-1,-1,-1,-1,-1,-1,-1,-1,-1,-1,-1,-1,-1,-1,-1,-1,-1,-1,-1,-1,-1,-1],"split_conditions":[0E0,3.1170303E-3,5.992E3,0E0,1E0,8.156607E-4,1E1,3.296E3,2E0,5.9424993E-2,3.296E3,3.3927995E-3,3.8482663E-3,1.2069873E-3,0E0,7.76E2,1.8825302E-2,8.04228E-3,2.6782153E-3,1E0,5.63E2,2.3178412E-3,0E0,7.134885E-4,2E0,6E0,2E0,1E0,3.4877234E-5,2.6733438E-3,1E0,5.495233E-4,3.6190258E-4,5E0,8.302264E-3,0E0,7.0745294E-4,1.0718369E-4,6.006006E-3,0E0,3.6010742E-3,3.6636137E-3,0E0,1.7E1,3.5906644E-3,2.0856E5,8E0,3.5519127E-2,1.94E2,1.513802E9,2.4576E4,0E0,2.5699014E-4,4.295357E-3,-2.56E3,4E0,3.2206433E-4,1E0,1E0,1.7332999E-2,7.2138E4,1E0,1.92E2,-3.2224547E-2,8.239167E-2,-9.289325E-2,2.0419786E-2,-1.1430585E-1,-5.4267615E-2,-1.1197275E-1,1.55578E-1,6.843715E-2,-1.1308291E-1,-1.275436E-1,2.0068693E-1,6.8116486E-2,5.448039E-4,-3.4929737E-2,1.389182E-1,6.928965E-2,-1.1172183E-1,-8.9016475E-2,9.713004E-2,1.0423457E-1,-6.5461E-2,1.13012075E-1,-1.0503173E-1,6.218804E-2,-5.049479E-2,2.4735382E-2,6.601221E-2,4.370599E-2,-1.1756463E-1,8.121886E-2,-1.1110506E-1,6.812277E-2,-8.897122E-2,4.0014475E-3,-8.959859E-2,-8.153569E-2,-1.3548972E-2,6.6020824E-2,-3.8318735E-2,8.2199425E-5,5.0500493E-2,3.4631915E-2,-7.696488E-2,-4.5166183E-2,6.1185043E-2,-5.373306E-2,4.200487E-2,-1.1897743E-2,-1.1195686E-1,-7.8004174E-2,8.4142156E-2,-7.993004E-2,2.141776E-1,-6.823096E-2,2.6512658E-2,-9.9086456E-2,1.6991886E-1,1.274547E-1,-4.237258E-2,-1.04269564E-1,8.932055E-2,-8.394064E-2,9.313677E-2],"split_indices":[637,572,2359,2159,1060,55,679,2359,916,256,2359,1,95,126,994,2355,561,211,43,927,2355,497,951,351,691,683,691,930,428,216,930,181,507,614,546,721,321,355,592,1043,92,562,940,620,256,2364,2361,529,512,626,2376,1431,387,88,735,688,508,975,623,520,514,1059,2375,0,0,0,0,0,0,0,0,0,0,0,0,0,0,0,0,0,0,0,0,0,0,0,0,0,0,0,0,0,0,0,0,0,0,0,0,0,0,0,0,0,0,0,0,0,0,0,0,0,0,0,0,0,0,0,0,0,0,0,0,0,0,0,0],"split_type":[0,0,0,0,0,0,0,0,0,0,0,0,0,0,0,0,0,0,0,0,0,0,0,0,0,0,0,0,0,0,0,0,0,0,0,0,0,0,0,0,0,0,0,0,0,0,0,0,0,0,0,0,0,0,0,0,0,0,0,0,0,0,0,0,0,0,0,0,0,0,0,0,0,0,0,0,0,0,0,0,0,0,0,0,0,0,0,0,0,0,0,0,0,0,0,0,0,0,0,0,0,0,0,0,0,0,0,0,0,0,0,0,0,0,0,0,0,0,0,0,0,0,0,0,0,0,0],"sum_hessian":[1.653754E5,3.035279E4,1.3502262E5,2.1966092E4,8.386697E3,1.1960897E5,1.541365E4,3.540603E3,1.842549E4,2.0244016E3,6.3622964E3,1.6034439E4,1.0357453E5,8.035135E3,7.378515E3,1.8797286E3,1.6608743E3,1.8304385E4,1.2110449E2,1.7586503E3,2.6575128E2,5.4898833E3,8.724129E2,3.5460813E3,1.2488358E4,8.625496E4,1.7319568E4,1.8916163E3,6.1435186E3,8.100371E2,6.568478E3,7.181652E2,1.1615635E3,1.6262699E3,3.4604385E1,1.8219125E4,8.526046E1,1.014579E2,1.9646587E1,1.7391459E3,1.9504429E1,1.4453658E2,1.2121472E2,1.4899298E3,3.9999534E3,9.210294E1,7.8030994E2,3.1348323E3,4.1124905E2,9.94545E3,2.5429087E3,8.2825234E4,3.4297246E3,1.1855538E4,5.4640312E3,1.8016012E3,9.001511E1,1.4948025E3,4.648716E3,3.7852655E2,4.3151056E2,5.805709E3,7.6276935E2,2.059254E2,5.122398E2,6.9945337E2,4.6211014E2,1.5276503E3,9.861958E1,1.9181917E1,1.5422468E1,8.010457E1,1.813902E4,3.446516E1,5.07953E1,6.998435E1,3.1473547E1,1.2084938E0,1.8438095E1,1.943806E1,1.7197078E3,1.4920218E0,1.8012407E1,1.2062307E2,2.3913506E1,3.4239495E0,1.1779077E2,4.4214188E2,1.047788E3,1.1795491E3,2.8204043E3,5.3244778E1,3.8858166E1,2.4300644E0,7.778799E2,2.9433896E3,1.9144276E2,9.470926E1,3.165398E2,7.549575E3,2.3958748E3,1.3309178E3,1.2119908E3,7.8197373E3,7.50055E4,1.3299153E3,2.0998093E3,1.0538004E4,1.3175334E3,5.916243E2,4.872407E3,1.2721318E2,1.6743881E3,3.3587776E1,5.642733E1,1.4749751E3,1.9827297E1,7.583168E2,3.8903992E3,3.6994223E2,8.584307E0,2.1719427E2,2.143163E2,5.744789E3,6.0919647E1,5.652459E2,1.9752347E2],"tree_param":{"num_deleted":"0","num_feature":"2381","num_nodes":"127","size_leaf_vector":"1"}},{"base_weights":[-1.2499578E-2,-7.341315E-1,1.4168926E-1,-1.0643959E0,-2.4685186E-1,2.3745379E-1,-4.7195405E-1,-6.140338E-1,-1.1156397E0,-6.9878423E-1,2.4709213E-1,3.1771222E-1,-2.443858E-1,-3.2852134E-1,-1.0342458E0,3.3131155E-1,-9.0015423E-1,2.805272E0,-1.1173269E0,1.347358E0,-7.6404184E-1,4.3675184E-1,-9.7481817E-1,6.7020947E-1,2.3708825E-1,7.515045E-4,-9.090685E-1,2.1254383E-2,-5.2070314E-1,2.9648757E-1,-1.0774245E0,1.6597594E0,-1.8182704E-1,-1.0179943E0,1.0331452E0,3.4129292E-1,-2.647501E-2,-9.084533E-1,-1.1408741E0,-1.3285044E-1,1.5528735E0,-1.2439126E-1,-9.888893E-1,-6.5278274E-1,5.185231E-1,7.4707225E-2,-1.0640169E0,7.263232E-1,-1.3024034E-1,-1.0316577E-3,3.8816297E-1,-1.0978926E0,1.1645689E-1,1.00774296E-1,-1.0119394E0,2.0632787E-1,-7.127282E-1,-7.01067E-1,-2.0261021E-1,-1.0122231E0,8.722735E-1,1.1199309E0,-1.0921926E0,1.2890731E-1,4.6705946E-1,6.172591E-2,-9.957678E-2,1.2586139E-1,-1.066277E-1,1.2965931E-1,-1.0538745E-1,4.8088166E-1,-9.3014434E-2,-1.1433387E-1,7.874781E-3,1.0111975E-1,-1.0605583E-1,1.3273977E-1,2.1837914E-1,2.3733856E-2,-9.155044E-2,-1.0172712E-1,5.3349532E-2,4.3674134E-2,-9.250302E-2,5.4494556E-2,-8.973898E-2,8.935574E-2,-9.278216E-2,-1.077567E-1,5.3289898E-2,7.324665E-2,-6.020342E-2,-7.153845E-2,3.461578E-2,9.015485E-3,-9.548352E-2,4.6155896E-2,-7.5240307E-3,-1.2736505E-1,4.4788864E-2,-3.7684288E-2,3.0138347E-2,-6.905212E-2,5.556919E-2,-1.7611623E-2,-1.07750155E-1,-5.8241513E-2,4.6362843E-2,-7.951898E-2,9.054353E-2,-8.2080625E-2,-1.3841177E-2,4.1415345E-2,-4.6201672E-2,-1.1860752E-1,1.6465642E-2,1.1255389E-1,-8.5771516E-2,1.7223768E-1,-7.897129E-2,-1.1285032E-1,-6.51381E-2],"categories":[],"categories_nodes":[],"categories_segments":[],"categories_sizes":[],"default_left":[0,0,0,0,0,0,0,0,0,0,0,0,0,0,0,0,0,0,0,0,0,0,0,0,0,0,0,0,0,0,0,0,0,0,0,0,0,0,0,0,0,0,0,0,0,0,0,0,0,0,0,0,0,0,0,0,0,0,0,0,0,0,0,0,0,0,0,0,0,0,0,0,0,0,0,0,0,0,0,0,0,0,0,0,0,0,0,0,0,0,0,0,0,0,0,0,0,0,0,0,0,0,0,0,0,0,0,0,0,0,0,0,0,0,0,0,0,0,0,0,0,0,0],"id":10,"left_children":[1,3,5,7,9,11,13,15,17,19,21,23,25,27,29,31,33,35,37,39,41,43,45,47,49,51,53,55,57,59,61,63,65,67,69,-1,-1,71,73,75,77,79,81,83,85,87,89,91,93,95,97,99,101,103,105,107,109,111,113,115,117,119,121,-1,-1,-1,-1,-1,-1,-1,-1,-1,-1,-1,-1,-1,-1,-1,-1,-1,-1,-1,-1,-1,-1,-1,-1,-1,-1,-1,-1,-1,-1,-1,-1,-1,-1,-1,-1,-1,-1,-1,-1,-1,-1,-1,-1,-1,-1,-1,-1,-1,-1,-1,-1,-1,-1,-1,-1,-1,-1,-1,-1],"loss_changes":[1.8067295E4,4.600204E3,7.862345E3,3.9252344E2,2.5783499E3,4.4755693E3,1.4562996E3,4.717032E2,1.04328125E2,8.0639136E2,1.2794336E3,2.8192617E3,2.6925576E3,9.6743054E2,2.1121094E2,2.7683276E2,3.059131E2,1.3708984E1,7.416797E1,5.702536E1,8.406277E2,4.2603473E2,6.952838E1,8.295342E2,2.9045723E3,1.5349093E3,4.6263306E2,6.9352747E2,5.327539E2,8.8392746E1,1.1659131E2,1.2024332E2,1.9152913E2,1.400393E2,4.3909058E1,0E0,0E0,1.9719324E2,4.1382812E1,2.621812E1,2.0443604E1,4.3563885E2,1.8742432E2,9.947926E1,1.667898E2,4.930009E1,1.5370422E1,1.4126465E2,3.3771234E2,2.7260674E3,1.6802124E3,3.1313892E2,9.966553E2,1.4888618E2,2.2124365E2,8.277246E2,1.3790686E2,3.9920044E2,5.381418E2,7.549885E0,3.653689E1,2.9233479E1,5.5797363E1,0E0,0E0,0E0,0E0,0E0,0E0,0E0,0E0,0E0,0E0,0E0,0E0,0E0,0E0,0E0,0E0,0E0,0E0,0E0,0E0,0E0,0E0,0E0,0E0,0E0,0E0,0E0,0E0,0E0,0E0,0E0,0E0,0E0,0E0,0E0,0E0,0E0,0E0,0E0,0E0,0E0,0E0,0E0,0E0,0E0,0E0,0E0,0E0,0E0,0E0,0E0,0E0,0E0,0E0,0E0,0E0,0E0,0E0,0E0,0E0],"parents":[2147483647,0,0,1,1,2,2,3,3,4,4,5,5,6,6,7,7,8,8,9,9,10,10,11,11,12,12,13,13,14,14,15,15,16,16,17,17,18,18,19,19,20,20,21,21,22,22,23,23,24,24,25,25,26,26,27,27,28,28,29,29,30,30,31,31,32,32,33,33,34,34,37,37,38,38,39,39,40,40,41,41,42,42,43,43,44,44,45,45,46,46,47,47,48,48,49,49,50,50,51,51,52,52,53,53,54,54,55,55,56,56,57,57,58,58,59,59,60,60,61,61,62,62],"right_children":[2,4,6,8,10,12,14,16,18,20,22,24,26,28,30,32,34,36,38,40,42,44,46,48,50,52,54,56,58,60,62,64,66,68,70,-1,-1,72,74,76,78,80,82,84,86,88,90,92,94,96,98,100,102,104,106,108,110,112,114,116,118,120,122,-1,-1,-1,-1,-1,-1,-1,-1,-1,-1,-1,-1,-1,-1,-1,-1,-1,-1,-1,-1,-1,-1,-1,-1,-1,-1,-1,-1,-1,-1,-1,-1,-1,-1,-1,-1,-1,-1,-1,-1,-1,-1,-1,-1,-1,-1,-1,-1,-1,-1,-1,-1,-1,-1,-1,-1,-1,-1,-1,-1],"split_conditions":[0E0,2.4810235E-3,5.288E3,4.8828125E-3,2.598354E-3,4.0807094E-2,2E0,6.88E2,-5.6356225E0,-5.794E4,4.36E3,8.64E2,4.832E3,0E0,-4.102959E0,1.927426E-4,7.0375E1,5.3267047E-4,0E0,-6.144E4,7.44E2,1E0,0E0,0E0,4.738492E0,0E0,2.8453637E-2,5.34236E6,1.5782829E-5,1.4713521E-3,2.2921845E-4,3.4112914E-3,0E0,-5.794E4,1.4757146E-3,3.4129292E-1,-2.647501E-2,2.4723102E-5,2E0,4.2654455E-4,3.6864E5,1.5E1,1.2761315E-2,6.64E2,7.6E1,6.96E3,1E0,2.74E2,5.594423E-4,6.008E3,3.5989953E-3,1E0,-6.8E2,1.0881801E-3,1.1875E1,1.6087582E-3,2E0,4E0,1.2836259E-4,1.9081364E-3,1.8220458E-3,6.369427E-3,1E0,1.2890731E-1,4.6705946E-1,6.172591E-2,-9.957678E-2,1.2586139E-1,-1.066277E-1,1.2965931E-1,-1.0538745E-1,4.8088166E-1,-9.3014434E-2,-1.1433387E-1,7.874781E-3,1.0111975E-1,-1.0605583E-1,1.3273977E-1,2.1837914E-1,2.3733856E-2,-9.155044E-2,-1.0172712E-1,5.3349532E-2,4.3674134E-2,-9.250302E-2,5.4494556E-2,-8.973898E-2,8.935574E-2,-9.278216E-2,-1.077567E-1,5.3289898E-2,7.324665E-2,-6.020342E-2,-7.153845E-2,3.461578E-2,9.015485E-3,-9.548352E-2,4.6155896E-2,-7.5240307E-3,-1.2736505E-1,4.4788864E-2,-3.7684288E-2,3.0138347E-2,-6.905212E-2,5.556919E-2,-1.7611623E-2,-1.07750155E-1,-5.8241513E-2,4.6362843E-2,-7.951898E-2,9.054353E-2,-8.2080625E-2,-1.3841177E-2,4.1415345E-2,-4.6201672E-2,-1.1860752E-1,1.6465642E-2,1.1255389E-1,-8.5771516E-2,1.7223768E-1,-7.897129E-2,-1.1285032E-1,-6.51381E-2],"split_indices":[637,564,2359,32,511,580,640,2355,770,810,2359,2355,2364,1601,765,198,513,401,1780,810,2355,1060,951,655,786,1553,593,2360,324,158,32,78,655,810,404,0,0,22,2016,231,2356,513,195,2355,2371,2359,860,620,179,2352,223,930,835,221,513,506,1569,692,373,126,256,585,930,0,0,0,0,0,0,0,0,0,0,0,0,0,0,0,0,0,0,0,0,0,0,0,0,0,0,0,0,0,0,0,0,0,0,0,0,0,0,0,0,0,0,0,0,0,0,0,0,0,0,0,0,0,0,0,0,0,0,0,0],"split_type":[0,0,0,0,0,0,0,0,0,0,0,0,0,0,0,0,0,0,0,0,0,0,0,0,0,0,0,0,0,0,0,0,0,0,0,0,0,0,0,0,0,0,0,0,0,0,0,0,0,0,0,0,0,0,0,0,0,0,0,0,0,0,0,0,0,0,0,0,0,0,0,0,0,0,0,0,0,0,0,0,0,0,0,0,0,0,0,0,0,0,0,0,0,0,0,0,0,0,0,0,0,0,0,0,0,0,0,0,0,0,0,0,0,0,0,0,0,0,0,0,0,0,0],"sum_hessian":[1.6237505E5,2.8585572E4,1.3378947E5,1.7037115E4,1.1548459E4,1.1572947E5,1.806001E4,1.7418293E3,1.5295285E4,6.0304785E3,5.51798E3,9.920548E4,1.6523986E4,1.4390724E4,3.669286E3,4.0466223E2,1.3371671E3,5.8642597E0,1.5289421E4,1.8577844E2,5.8446997E3,4.7771357E3,7.408442E2,1.846538E4,8.07401E4,1.2072577E4,4.451409E3,5.103364E3,9.287359E3,1.15132034E2,3.5541538E3,1.12132225E2,2.9253E2,1.2607917E3,7.637539E1,4.802078E0,1.0621818E0,1.5530281E3,1.3736393E4,2.2692345E1,1.630861E2,1.5205529E3,4.324147E3,3.33014E2,4.444122E3,5.8044704E1,6.8279944E2,1.7255795E4,1.2095854E3,3.1341486E4,4.9398613E4,1.1494879E3,1.0923089E4,4.115364E2,4.0398728E3,4.0762559E3,1.0271078E3,5.926012E3,3.3613477E3,3.4945656E1,8.018638E1,2.3228018E1,3.5309258E3,1.01111755E2,1.10204735E1,1.477339E2,1.447961E2,2.5663195E1,1.2351285E3,6.8151276E1,8.224112E0,5.0356956E0,1.5479924E3,1.3708754E4,2.763887E1,1.0121066E1,1.257128E1,1.2243464E2,4.065147E1,1.0439264E3,4.766265E2,4.245333E3,7.881405E1,6.645588E1,2.6655814E2,4.363313E3,8.080907E1,3.200897E1,2.6035736E1,6.77377E2,5.4224176E0,1.7176807E4,7.898941E1,5.4261176E2,6.6697375E2,2.8607434E4,2.7340518E3,4.2644395E4,6.754216E3,1.0322906E3,1.1719715E2,2.9780288E3,7.94506E3,1.5003818E2,2.6149823E2,2.9410794E2,3.745765E3,1.00234625E3,3.0739097E3,9.7778827E2,4.9319466E1,4.8858003E3,1.0402117E3,9.9501306E2,2.3663347E3,3.0441006E1,4.504648E0,7.0251205E1,9.935178E0,1.7732052E1,5.4959655E0,3.2607698E3,2.7015585E2],"tree_param":{"num_deleted":"0","num_feature":"2381","num_nodes":"123","size_leaf_vector":"1"}},{"base_weights":[-1.2262497E-2,-7.0475405E-1,1.2836696E-1,-1.0389024E0,-2.3181476E-1,2.1571045E-1,-4.3441406E-1,-5.841064E-1,-1.0922664E0,2.4602504E-2,-1.0224199E0,-1.9650982E-1,3.009096E-1,-2.9834816E-1,-1.0035028E0,2.932586E-1,-8.696734E-1,2.2638125E0,-1.0940263E0,-4.748236E-1,3.945852E-1,-4.2457718E-1,-1.0624005E0,3.0034506E-1,-3.6929744E-1,-4.175507E-1,3.3730748E-1,-1.8892115E-1,-8.54301E-1,2.6707172E-1,-1.0484737E0,1.4415929E0,-1.6638601E-1,-1.0118299E0,6.86399E-1,2.7982458E-1,-7.305667E-3,-8.7023556E-1,-1.1198528E0,-1.0683164E-1,-9.1585296E-1,-6.065226E-1,4.661695E-1,3.67422E-1,-9.008498E-1,-1.0717499E0,8.691622E-1,4.052426E-1,-1.0082321E0,-4.8476496E-1,5.184224E-1,1.4165269E-2,-8.5829866E-1,-7.067046E-1,3.6463985E-1,-3.444436E-1,3.4843674E-1,-8.9298564E-1,6.631831E-1,-9.995427E-1,7.533239E-1,9.790949E-1,-1.0634972E0,1.1599683E-1,3.3294725E-1,-7.437463E-2,1.0601373E-1,9.6057124E-2,-1.0485005E-1,1.3508989E-1,-1.00262694E-1,3.038934E-1,-8.94479E-2,-1.1224731E-1,7.093822E-3,-5.566145E-2,3.633922E-2,-9.427404E-2,1.8213224E-1,3.8347125E-2,-8.8178575E-2,5.2855283E-2,-2.1028467E-2,-8.229872E-2,9.786314E-2,1.1012637E-1,-1.022467E-1,-1.0795893E-1,8.505776E-2,3.5007703E-1,-7.957042E-2,-4.3136306E-2,5.5594575E-2,2.486293E-3,-1.2740745E-1,1.1519547E-2,-6.3220315E-2,7.15926E-2,-7.629158E-2,-2.7441833E-2,7.754943E-2,4.0463407E-2,-9.6734084E-2,1.1738256E-2,-9.332652E-2,-7.0676975E-2,3.8741324E-2,-5.681718E-2,1.5989197E-2,-7.672371E-2,5.740595E-2,-9.3545124E-2,1.2603839E-2,-1.0952007E-1,1.0141708E-1,-1.1330266E-1,3.88562E-2,1.0881554E-1,-4.098563E-2,1.57498E-1,-6.270492E-2,-1.102224E-1,-6.1107855E-2],"categories":[],"categories_nodes":[],"categories_segments":[],"categories_sizes":[],"default_left":[0,0,0,0,0,0,0,0,0,0,0,0,0,0,0,0,0,0,0,0,0,0,0,0,0,0,0,0,0,0,0,0,0,0,0,0,0,0,0,0,0,0,0,0,0,0,0,0,0,0,0,0,0,0,0,0,0,0,0,0,0,0,0,0,0,0,0,0,0,0,0,0,0,0,0,0,0,0,0,0,0,0,0,0,0,0,0,0,0,0,0,0,0,0,0,0,0,0,0,0,0,0,0,0,0,0,0,0,0,0,0,0,0,0,0,0,0,0,0,0,0,0,0],"id":11,"left_children":[1,3,5,7,9,11,13,15,17,19,21,23,25,27,29,31,33,35,37,39,41,43,45,47,49,51,53,55,57,59,61,63,65,67,69,-1,-1,71,73,75,77,79,81,83,85,87,89,91,93,95,97,99,101,103,105,107,109,111,113,115,117,119,121,-1,-1,-1,-1,-1,-1,-1,-1,-1,-1,-1,-1,-1,-1,-1,-1,-1,-1,-1,-1,-1,-1,-1,-1,-1,-1,-1,-1,-1,-1,-1,-1,-1,-1,-1,-1,-1,-1,-1,-1,-1,-1,-1,-1,-1,-1,-1,-1,-1,-1,-1,-1,-1,-1,-1,-1,-1,-1,-1,-1],"loss_changes":[1.5537179E4,4.2556885E3,6.518749E3,3.8235547E2,2.2606328E3,4.031852E3,1.379321E3,4.1599902E2,8.5884766E1,1.5562427E3,6.482422E1,1.6882245E3,2.4879697E3,8.746836E2,1.9669434E2,2.1570561E2,2.7767413E2,9.855125E0,8.061133E1,5.815909E2,3.469934E2,6.553084E1,4.7146484E1,6.969405E2,1.4957812E3,8.729495E2,2.5840938E3,1.00436615E3,1.3940674E2,7.361625E1,1.02177734E2,5.8233322E1,2.0786548E2,8.4020874E1,1.196626E2,0E0,0E0,1.4155396E2,3.955664E1,4.1367938E2,1.21688965E2,8.843817E1,1.9067297E2,4.8549797E1,2.7478806E1,3.9304688E1,5.9214207E1,5.9261475E2,1.0353363E2,1.1421707E3,4.2565567E2,5.0962082E2,3.13016E2,4.314812E2,2.1532744E3,1.0516958E3,6.795165E2,9.992029E1,3.774421E1,6.600765E0,3.3962505E1,2.4857992E1,5.70791E1,0E0,0E0,0E0,0E0,0E0,0E0,0E0,0E0,0E0,0E0,0E0,0E0,0E0,0E0,0E0,0E0,0E0,0E0,0E0,0E0,0E0,0E0,0E0,0E0,0E0,0E0,0E0,0E0,0E0,0E0,0E0,0E0,0E0,0E0,0E0,0E0,0E0,0E0,0E0,0E0,0E0,0E0,0E0,0E0,0E0,0E0,0E0,0E0,0E0,0E0,0E0,0E0,0E0,0E0,0E0,0E0,0E0,0E0,0E0,0E0],"parents":[2147483647,0,0,1,1,2,2,3,3,4,4,5,5,6,6,7,7,8,8,9,9,10,10,11,11,12,12,13,13,14,14,15,15,16,16,17,17,18,18,19,19,20,20,21,21,22,22,23,23,24,24,25,25,26,26,27,27,28,28,29,29,30,30,31,31,32,32,33,33,34,34,37,37,38,38,39,39,40,40,41,41,42,42,43,43,44,44,45,45,46,46,47,47,48,48,49,49,50,50,51,51,52,52,53,53,54,54,55,55,56,56,57,57,58,58,59,59,60,60,61,61,62,62],"right_children":[2,4,6,8,10,12,14,16,18,20,22,24,26,28,30,32,34,36,38,40,42,44,46,48,50,52,54,56,58,60,62,64,66,68,70,-1,-1,72,74,76,78,80,82,84,86,88,90,92,94,96,98,100,102,104,106,108,110,112,114,116,118,120,122,-1,-1,-1,-1,-1,-1,-1,-1,-1,-1,-1,-1,-1,-1,-1,-1,-1,-1,-1,-1,-1,-1,-1,-1,-1,-1,-1,-1,-1,-1,-1,-1,-1,-1,-1,-1,-1,-1,-1,-1,-1,-1,-1,-1,-1,-1,-1,-1,-1,-1,-1,-1,-1,-1,-1,-1,-1,-1,-1,-1],"split_conditions":[0E0,2.4810235E-3,5.144E3,4.8828125E-3,2.664E3,3.279501E-5,2E0,6.88E2,-5.6356225E0,1.535456E-3,0E0,9.666032E-5,0E0,4.789248E6,-4.102959E0,2.000496E-3,5.6191015E0,4.667955E-3,0E0,2.9879955E-3,1E0,6.96E3,3.3006463E-2,4.052198E-2,1E0,1.072128E6,-1E0,4E0,2E0,1.3976491E-3,2.2921845E-4,2.1735453E-3,3.4276638E-3,-5.794E4,3.2169856E-3,2.7982458E-1,-7.305667E-3,1.3786765E-4,2E0,6.0143422E-2,9.564887E-2,6.64E2,3.6E2,6.1367644E-4,0E0,4.5432765E-3,0E0,1.3344934E9,1.4724731E-3,3.3231305E-3,2.72E2,2E0,-1E0,1E0,0E0,1E0,2.668514E-3,3.9492594E-3,1E0,3.1374667E-3,3.1972702E-3,2.006E4,1E0,1.1599683E-1,3.3294725E-1,-7.437463E-2,1.0601373E-1,9.6057124E-2,-1.0485005E-1,1.3508989E-1,-1.00262694E-1,3.038934E-1,-8.94479E-2,-1.1224731E-1,7.093822E-3,-5.566145E-2,3.633922E-2,-9.427404E-2,1.8213224E-1,3.8347125E-2,-8.8178575E-2,5.2855283E-2,-2.1028467E-2,-8.229872E-2,9.786314E-2,1.1012637E-1,-1.022467E-1,-1.0795893E-1,8.505776E-2,3.5007703E-1,-7.957042E-2,-4.3136306E-2,5.5594575E-2,2.486293E-3,-1.2740745E-1,1.1519547E-2,-6.3220315E-2,7.15926E-2,-7.629158E-2,-2.7441833E-2,7.754943E-2,4.0463407E-2,-9.6734084E-2,1.1738256E-2,-9.332652E-2,-7.0676975E-2,3.8741324E-2,-5.681718E-2,1.5989197E-2,-7.672371E-2,5.740595E-2,-9.3545124E-2,1.2603839E-2,-1.0952007E-1,1.0141708E-1,-1.1330266E-1,3.88562E-2,1.0881554E-1,-4.098563E-2,1.57498E-1,-6.270492E-2,-1.102224E-1,-6.1107855E-2],"split_indices":[637,564,2359,32,2359,506,640,2355,770,510,951,527,1597,2360,765,529,757,602,1780,112,1060,2359,517,529,1697,616,658,692,1569,158,32,190,254,810,578,0,0,122,2016,584,304,2355,2353,506,1905,260,2092,626,116,32,2353,691,1447,618,2141,1323,505,148,1694,10,30,2354,930,0,0,0,0,0,0,0,0,0,0,0,0,0,0,0,0,0,0,0,0,0,0,0,0,0,0,0,0,0,0,0,0,0,0,0,0,0,0,0,0,0,0,0,0,0,0,0,0,0,0,0,0,0,0,0,0,0,0,0,0],"split_type":[0,0,0,0,0,0,0,0,0,0,0,0,0,0,0,0,0,0,0,0,0,0,0,0,0,0,0,0,0,0,0,0,0,0,0,0,0,0,0,0,0,0,0,0,0,0,0,0,0,0,0,0,0,0,0,0,0,0,0,0,0,0,0,0,0,0,0,0,0,0,0,0,0,0,0,0,0,0,0,0,0,0,0,0,0,0,0,0,0,0,0,0,0,0,0,0,0,0,0,0,0,0,0,0,0,0,0,0,0,0,0,0,0,0,0,0,0,0,0,0,0,0,0],"sum_hessian":[1.5954242E5,2.692982E4,1.326126E5,1.5779704E4,1.1150116E4,1.1479678E5,1.7815818E4,1.6583488E3,1.4121355E4,8.420169E3,2.7299475E3,1.966244E4,9.5134336E4,1.4379327E4,3.436491E3,4.072138E2,1.2511349E3,6.7273536E0,1.4114629E4,3.5831384E3,4.837031E3,1.7184875E2,2.5580986E3,5.0733022E3,1.4589138E4,4.586696E3,9.054764E4,1.2015651E4,2.363675E3,1.17304886E2,3.3191863E3,1.15792366E2,2.9142145E2,1.1467245E3,1.044104E2,5.3145113E0,1.4128419E0,1.4639514E3,1.2650677E4,1.953987E3,1.6291514E3,3.2229236E2,4.5147383E3,6.461999E1,1.0722877E2,2.5462192E3,1.1879497E1,4.697439E3,3.7586353E2,1.291032E4,1.6788174E3,2.3175781E3,2.2691177E3,2.3094373E3,8.82382E4,9.318923E3,2.6967292E3,2.3053179E3,5.8357105E1,3.2248013E1,8.505687E1,2.3940931E1,3.295245E3,1.0216615E2,1.3626216E1,1.9841522E2,9.300622E1,2.0470669E1,1.1262538E3,7.50746E1,2.9335804E1,8.256569E0,1.4556948E3,1.2622958E4,2.7719112E1,9.9860675E2,9.553803E2,1.613953E3,1.5198356E1,7.003084E1,2.5226152E2,4.133739E3,3.809994E2,2.1805151E1,4.2814835E1,5.6792617E0,1.0154951E2,2.5363142E3,9.904872E0,4.175952E0,7.7035446E0,7.167344E2,3.9807046E3,7.711029E1,2.9875323E2,2.5468425E3,1.0363478E4,1.4549888E3,2.2382855E2,1.6810221E3,6.3655597E2,1.8013005E2,2.0889875E3,4.981084E2,1.8113287E3,1.8358883E3,8.640232E4,6.455204E3,2.8637183E3,4.5321957E2,2.2435098E3,2.213171E3,9.214695E1,9.357486E0,4.8999622E1,2.9586641E1,2.661371E0,6.6095276E1,1.8961596E1,1.7476494E1,6.4644375E0,3.0340928E3,2.611525E2],"tree_param":{"num_deleted":"0","num_feature":"2381","num_nodes":"123","size_leaf_vector":"1"}},{"base_weights":[-1.2010867E-2,-6.762808E-1,1.163954E-1,-1.0152026E0,-2.17306E-1,1.8622541E-1,-4.7781178E-1,-5.563142E-1,-1.0707018E0,2.1924956E-2,-9.974018E-1,-1.3285665E-1,2.8249818E-1,-2.3052998E-1,-7.696039E-1,2.623535E-1,-8.4135437E-1,-1.0963194E0,-8.052367E-1,-4.4383296E-1,3.587225E-1,-5.763485E-1,-1.060591E0,1.2101741E-2,-6.4049006E-1,3.6030835E-1,-6.524345E-2,-9.838158E-1,-6.468596E-2,-1.0994618E-1,-8.574384E-1,8.869061E-1,-4.865792E-1,-9.840172E-1,6.2096554E-1,-1.0997282E0,3.1032753E-1,8.130017E-1,-8.868463E-1,7.3107794E-2,-7.428248E-1,-3.3754703E-1,4.447571E-1,-7.996019E-1,1.0493566E0,-5.920464E-1,-1.091235E0,-4.7699896E-1,1.7050591E-1,3.465598E-2,-9.2836976E-1,3.9083192E-1,-3.8645512E-1,-4.3927836E-1,1.4235416E-1,-1.0431343E0,1.4317961E0,1.2962224E-1,-5.3194296E-1,3.749678E-1,-1.0050374E0,-9.3820715E-1,-2.947075E-1,-6.131042E-2,1.357584E-1,6.4614326E-2,-9.533215E-2,8.534958E-2,-1.0214515E-1,1.1981612E-1,-9.711841E-2,1.570794E-1,-1.1014178E-1,3.436047E-1,-1.08507E-1,1.2349212E-1,-1.00501955E-1,-9.390325E-2,2.811963E-2,3.6072265E-2,-7.9954855E-2,1.24255076E-1,-8.885988E-2,-1.0144771E-2,-1.084999E-1,5.1416177E-2,-4.503995E-2,-8.616863E-2,1.3722943E-1,-6.6949E-2,2.4498363E-1,4.949646E-2,-9.159767E-2,-1.0936262E-1,1.6137701E-1,-6.8664975E-2,3.4127455E-2,3.549728E-2,-2.5864085E-2,-6.007601E-2,4.8777077E-2,-9.896628E-2,3.734448E-2,4.5397747E-2,7.5201774E-3,-7.6388046E-2,2.2741623E-2,-1.3237812E-2,-1.0986272E-1,2.1115093E-2,-9.218074E-2,-1.07518785E-1,5.8325578E-2,-7.32389E-2,1.5371521E-1,2.7936269E-2,-5.05304E-2,-8.256131E-2,-1.4404639E-2,-3.2973874E-3,1.763762E-1,1.0328139E-1,-1.056862E-1,8.118744E-2,-9.6307136E-2,-7.4112184E-2,8.546019E-2],"categories":[],"categories_nodes":[],"categories_segments":[],"categories_sizes":[],"default_left":[0,0,0,0,0,0,0,0,0,0,0,0,0,0,0,0,0,0,0,0,0,0,0,0,0,0,0,0,0,0,0,0,0,0,0,0,0,0,0,0,0,0,0,0,0,0,0,0,0,0,0,0,0,0,0,0,0,0,0,0,0,0,0,0,0,0,0,0,0,0,0,0,0,0,0,0,0,0,0,0,0,0,0,0,0,0,0,0,0,0,0,0,0,0,0,0,0,0,0,0,0,0,0,0,0,0,0,0,0,0,0,0,0,0,0,0,0,0,0,0,0,0,0,0,0,0,0],"id":12,"left_children":[1,3,5,7,9,11,13,15,17,19,21,23,25,27,29,31,33,35,37,39,41,43,45,47,49,51,53,55,57,59,61,63,65,67,69,71,73,75,77,79,81,83,85,87,89,91,93,95,97,99,101,103,105,107,109,111,113,115,117,119,121,123,125,-1,-1,-1,-1,-1,-1,-1,-1,-1,-1,-1,-1,-1,-1,-1,-1,-1,-1,-1,-1,-1,-1,-1,-1,-1,-1,-1,-1,-1,-1,-1,-1,-1,-1,-1,-1,-1,-1,-1,-1,-1,-1,-1,-1,-1,-1,-1,-1,-1,-1,-1,-1,-1,-1,-1,-1,-1,-1,-1,-1,-1,-1,-1,-1],"loss_changes":[1.3364315E4,3.9479395E3,5.4481885E3,3.712246E2,2.0122434E3,3.6093042E3,9.961206E2,3.682851E2,8.768359E1,1.2947296E3,6.671704E1,2.0040259E3,2.4422769E3,9.338167E2,3.668684E2,1.9132268E2,2.4473181E2,5.7277344E1,1.525838E2,5.35415E2,2.870843E2,1.2148409E2,3.0929688E1,1.6414332E3,1.1757957E3,1.6813584E3,1.2816211E3,1.9475696E2,5.5640533E2,3.2389398E2,2.5375195E2,1.58195E2,9.906881E1,7.4235596E1,9.731412E1,5.5179688E1,1.3233473E2,4.398878E1,6.702222E1,3.190877E2,6.3624963E2,9.295262E1,2.651214E2,4.066893E1,9.9298355E1,4.8759266E1,1.5108154E1,8.893894E2,1.2669744E3,5.2122644E2,3.387732E2,1.4122725E3,6.7135614E2,1.1919421E3,7.772892E2,6.9284424E1,8.592667E0,4.116856E2,2.0491794E2,2.7436807E2,2.8780579E1,2.1344092E2,3.613038E2,0E0,0E0,0E0,0E0,0E0,0E0,0E0,0E0,0E0,0E0,0E0,0E0,0E0,0E0,0E0,0E0,0E0,0E0,0E0,0E0,0E0,0E0,0E0,0E0,0E0,0E0,0E0,0E0,0E0,0E0,0E0,0E0,0E0,0E0,0E0,0E0,0E0,0E0,0E0,0E0,0E0,0E0,0E0,0E0,0E0,0E0,0E0,0E0,0E0,0E0,0E0,0E0,0E0,0E0,0E0,0E0,0E0,0E0,0E0,0E0,0E0,0E0,0E0,0E0],"parents":[2147483647,0,0,1,1,2,2,3,3,4,4,5,5,6,6,7,7,8,8,9,9,10,10,11,11,12,12,13,13,14,14,15,15,16,16,17,17,18,18,19,19,20,20,21,21,22,22,23,23,24,24,25,25,26,26,27,27,28,28,29,29,30,30,31,31,32,32,33,33,34,34,35,35,36,36,37,37,38,38,39,39,40,40,41,41,42,42,43,43,44,44,45,45,46,46,47,47,48,48,49,49,50,50,51,51,52,52,53,53,54,54,55,55,56,56,57,57,58,58,59,59,60,60,61,61,62,62],"right_children":[2,4,6,8,10,12,14,16,18,20,22,24,26,28,30,32,34,36,38,40,42,44,46,48,50,52,54,56,58,60,62,64,66,68,70,72,74,76,78,80,82,84,86,88,90,92,94,96,98,100,102,104,106,108,110,112,114,116,118,120,122,124,126,-1,-1,-1,-1,-1,-1,-1,-1,-1,-1,-1,-1,-1,-1,-1,-1,-1,-1,-1,-1,-1,-1,-1,-1,-1,-1,-1,-1,-1,-1,-1,-1,-1,-1,-1,-1,-1,-1,-1,-1,-1,-1,-1,-1,-1,-1,-1,-1,-1,-1,-1,-1,-1,-1,-1,-1,-1,-1,-1,-1,-1,-1,-1,-1],"split_conditions":[0E0,2.4810235E-3,5.992E3,4.8828125E-3,2.664E3,5.801396E-3,1E1,6.88E2,1E0,1.535456E-3,6.096E3,2.9488E4,3.798527E-3,1.4992768E-4,0E0,4.0408587E-3,5.6191015E0,2.2786459E-2,-5.7344E4,7.76E2,3.2E1,1E0,0E0,1.537135E-3,4.8935027E-3,6E0,1.2806588E9,2E0,2.63876E6,7.8737433E-4,1E0,5.4253475E-4,0E0,-5.794E4,3.2169856E-3,-3.584E3,3.8364955E-4,4.3908E4,8.645266E-3,0E0,-5.794E4,7.268067E-3,1.7712163E-3,4.5432765E-3,2.2285938E-5,1E0,1E0,2.7401234E1,2.9094268E-3,8.018092E-4,1E0,9.11488E5,1E0,6.164881E-2,4.26011E5,4.8E1,5.6440486E-3,1.42006865E-2,1.0813305E-2,2.7874958E-2,-6.8397512E0,0E0,1.92E2,-6.131042E-2,1.357584E-1,6.4614326E-2,-9.533215E-2,8.534958E-2,-1.0214515E-1,1.1981612E-1,-9.711841E-2,1.570794E-1,-1.1014178E-1,3.436047E-1,-1.08507E-1,1.2349212E-1,-1.00501955E-1,-9.390325E-2,2.811963E-2,3.6072265E-2,-7.9954855E-2,1.24255076E-1,-8.885988E-2,-1.0144771E-2,-1.084999E-1,5.1416177E-2,-4.503995E-2,-8.616863E-2,1.3722943E-1,-6.6949E-2,2.4498363E-1,4.949646E-2,-9.159767E-2,-1.0936262E-1,1.6137701E-1,-6.8664975E-2,3.4127455E-2,3.549728E-2,-2.5864085E-2,-6.007601E-2,4.8777077E-2,-9.896628E-2,3.734448E-2,4.5397747E-2,7.5201774E-3,-7.6388046E-2,2.2741623E-2,-1.3237812E-2,-1.0986272E-1,2.1115093E-2,-9.218074E-2,-1.07518785E-1,5.8325578E-2,-7.32389E-2,1.5371521E-1,2.7936269E-2,-5.05304E-2,-8.256131E-2,-1.4404639E-2,-3.2973874E-3,1.763762E-1,1.0328139E-1,-1.056862E-1,8.118744E-2,-9.6307136E-2,-7.4112184E-2,8.546019E-2],"split_indices":[637,564,2359,32,2359,534,679,2355,1941,510,2359,2364,95,511,994,3,757,80,710,2355,2361,1258,951,589,2,683,626,2230,2360,387,930,107,973,810,578,721,67,812,509,655,810,32,442,260,307,2363,960,513,144,155,930,2354,1777,511,514,613,12,432,531,591,748,815,2375,0,0,0,0,0,0,0,0,0,0,0,0,0,0,0,0,0,0,0,0,0,0,0,0,0,0,0,0,0,0,0,0,0,0,0,0,0,0,0,0,0,0,0,0,0,0,0,0,0,0,0,0,0,0,0,0,0,0,0,0,0,0,0,0],"split_type":[0,0,0,0,0,0,0,0,0,0,0,0,0,0,0,0,0,0,0,0,0,0,0,0,0,0,0,0,0,0,0,0,0,0,0,0,0,0,0,0,0,0,0,0,0,0,0,0,0,0,0,0,0,0,0,0,0,0,0,0,0,0,0,0,0,0,0,0,0,0,0,0,0,0,0,0,0,0,0,0,0,0,0,0,0,0,0,0,0,0,0,0,0,0,0,0,0,0,0,0,0,0,0,0,0,0,0,0,0,0,0,0,0,0,0,0,0,0,0,0,0,0,0,0,0,0,0],"sum_hessian":[1.5667892E5,2.5379857E4,1.3129908E5,1.459858E4,1.0781277E4,1.174923E5,1.380677E4,1.5762843E3,1.3022296E4,8.251708E3,2.5295688E3,2.7232793E4,9.025951E4,7.4743535E3,6.3324165E3,4.071069E2,1.1691774E3,1.1873375E4,1.1489205E3,3.462749E3,4.7889595E3,3.3140652E2,2.1981624E3,2.1184408E4,6.048385E3,7.3755945E4,1.650356E4,1.3477517E3,6.1266016E3,7.443586E2,5.588058E3,2.218864E2,1.852205E2,1.0655502E3,1.036272E2,1.184489E4,2.8485909E1,5.4729313E1,1.0941912E3,1.269173E3,2.1935762E3,5.2634845E2,4.262611E3,2.9183746E2,3.9569054E1,1.3618753E2,2.0619749E3,5.182015E3,1.6002393E4,1.8083217E3,4.240063E3,7.0860055E4,2.8958916E3,5.8900903E3,1.061347E4,1.3160037E3,3.1748003E1,4.327669E3,1.7989327E3,4.831786E2,